booster[0]:
0:[f276<0.18116051] yes=1,no=2,missing=2
	1:[f387<0.0101363808] yes=3,no=4,missing=4
		3:[f235<0.0607351027] yes=7,no=8,missing=8
			7:[f284<-0.00139314739] yes=15,no=16,missing=16
				15:[f435<1] yes=31,no=32,missing=32
					31:leaf=13.2203083
					32:leaf=10.1452093
				16:[f71<0.00792212132] yes=33,no=34,missing=34
					33:leaf=12.4005327
					34:leaf=8.65715408
			8:[f259<-0.00453227293] yes=17,no=18,missing=18
				17:[f304<26.416666] yes=35,no=36,missing=36
					35:leaf=10.5277777
					36:leaf=16.6954365
				18:[f56<0.00522239832] yes=37,no=38,missing=38
					37:leaf=10.1860552
					38:leaf=5.41011238
		4:[f383<0.00081428251] yes=9,no=10,missing=10
			9:[f70<-0.0069495216] yes=19,no=20,missing=20
				19:[f373<0.00326112518] yes=39,no=40,missing=40
					39:leaf=12.2373133
					40:leaf=7.36583757
				20:[f269<0.293552965] yes=41,no=42,missing=42
					41:leaf=9.90966606
					42:leaf=24.620369
			10:[f332<0.00304628816] yes=21,no=22,missing=22
				21:[f361<0.00436979625] yes=43,no=44,missing=44
					43:leaf=10.4574461
					44:leaf=9.86430836
				22:[f290<-0.00435494818] yes=45,no=46,missing=46
					45:leaf=9.14740372
					46:leaf=10.8852453
	2:[f238<0.286863327] yes=5,no=6,missing=6
		5:[f440<0.0157041047] yes=11,no=12,missing=12
			11:[f70<-0.000248443423] yes=23,no=24,missing=24
				23:[f345<0.310723752] yes=47,no=48,missing=48
					47:leaf=10.4824009
					48:leaf=19.5642471
				24:[f315<0.0159390159] yes=49,no=50,missing=50
					49:leaf=13.2446527
					50:leaf=11.0922346
			12:[f57<0.000793230254] yes=25,no=26,missing=26
				25:[f383<0.00081428251] yes=51,no=52,missing=52
					51:leaf=0.57031244
					52:leaf=5.92487478
				26:[f449<-0.00770426402] yes=53,no=54,missing=54
					53:leaf=14.338129
					54:leaf=5.93656731
		6:[f133<-0.0012993681] yes=13,no=14,missing=14
			13:[f66<0.0011365189] yes=27,no=28,missing=28
				27:leaf=15.6418924
				28:[f0<21.7000008] yes=55,no=56,missing=56
					55:leaf=2
					56:leaf=9.02564049
			14:[f11<0.029669255] yes=29,no=30,missing=30
				29:leaf=29.4140625
				30:leaf=16.294117
booster[1]:
0:[f38<27.5666676] yes=1,no=2,missing=2
	1:[f76<23.0666676] yes=3,no=4,missing=4
		3:[f335<-0.00270107808] yes=7,no=8,missing=8
			7:[f367<-0.0101884687] yes=15,no=16,missing=16
				15:[f43<0.0417246185] yes=31,no=32,missing=32
					31:leaf=14.4264851
					32:leaf=3.53466177
				16:[f104<-0.00436390005] yes=33,no=34,missing=34
					33:leaf=0.270572633
					34:leaf=-2.24677849
			8:[f372<0.0104476502] yes=17,no=18,missing=18
				17:[f234<0.688172042] yes=35,no=36,missing=36
					35:leaf=0.384730458
					36:leaf=-0.800668359
				18:[f409<0.00132751383] yes=37,no=38,missing=38
					37:leaf=4.97646999
					38:leaf=-3.98538136
		4:[f106<-0.0068003987] yes=9,no=10,missing=10
			9:[f38<27.5] yes=19,no=20,missing=20
				19:[f316<0.0292499475] yes=39,no=40,missing=40
					39:leaf=-0.885816514
					40:leaf=-2.87794137
				20:[f56<-0.00198859023] yes=41,no=42,missing=42
					41:leaf=23.7814922
					42:leaf=0.853890419
			10:[f420<0.335195541] yes=21,no=22,missing=22
				21:[f70<-0.00151709747] yes=43,no=44,missing=44
					43:leaf=0.53420198
					44:leaf=-4.43101549
				22:[f406<0.00424458925] yes=45,no=46,missing=46
					45:leaf=0.00986816455
					46:leaf=-0.900135636
	2:[f396<-0.162897468] yes=5,no=6,missing=6
		5:[f280<0.0364210866] yes=11,no=12,missing=12
			11:[f48<0.110972635] yes=23,no=24,missing=24
				23:[f23<-0.00367487827] yes=47,no=48,missing=48
					47:leaf=-5.54994535
					48:leaf=-0.756419063
				24:leaf=25.9636898
			12:[f240<0.0990105495] yes=25,no=26,missing=26
				25:[f52<0.0689536035] yes=49,no=50,missing=50
					49:leaf=-0.164566621
					50:leaf=0.958746314
				26:[f0<31.1000004] yes=51,no=52,missing=52
					51:leaf=22.9228039
					52:leaf=-2.82674718
		6:[f382<0.434065938] yes=13,no=14,missing=14
			13:[f241<0.0612097941] yes=27,no=28,missing=28
				27:[f402<-0.00541434344] yes=53,no=54,missing=54
					53:leaf=-1.02184319
					54:leaf=0.143536285
				28:[f232<0.378378391] yes=55,no=56,missing=56
					55:leaf=-0.272391319
					56:leaf=-1.1602627
			14:[f259<-0.000551891222] yes=29,no=30,missing=30
				29:[f446<0.00438116444] yes=57,no=58,missing=58
					57:leaf=0.586616158
					58:leaf=-0.467366278
				30:[f251<0.0098092379] yes=59,no=60,missing=60
					59:leaf=-0.0843902975
					60:leaf=2.13075447
booster[2]:
0:[f442<0.00801166985] yes=1,no=2,missing=2
	1:[f363<0.023643896] yes=3,no=4,missing=4
		3:[f363<0.0011791311] yes=7,no=8,missing=8
			7:[f156<0.270270258] yes=15,no=16,missing=16
				15:[f165<0.0557209924] yes=25,no=26,missing=26
					25:leaf=-0.00756548205
					26:leaf=-0.438373476
				16:[f433<0.553461015] yes=27,no=28,missing=28
					27:leaf=-0.0478515252
					28:leaf=0.326705337
			8:[f418<22.916666] yes=17,no=18,missing=18
				17:[f371<0.00530401198] yes=29,no=30,missing=30
					29:leaf=-0.502402961
					30:leaf=2.96344495
				18:[f289<0.000247533026] yes=31,no=32,missing=32
					31:leaf=0.433162808
					32:leaf=0.0295878518
		4:[f354<0.0424662605] yes=9,no=10,missing=10
			9:[f337<0.00448423764] yes=19,no=20,missing=20
				19:[f370<0.0100775082] yes=33,no=34,missing=34
					33:leaf=-1.3615675
					34:leaf=-4.27361393
				20:[f392<0.0147569496] yes=35,no=36,missing=36
					35:leaf=3.69063282
					36:leaf=-2.34820986
			10:[f78<0.537430167] yes=21,no=22,missing=22
				21:[f441<-0.00396789098] yes=37,no=38,missing=38
					37:leaf=6.44343042
					38:leaf=0.185441136
				22:[f41<0.156815439] yes=39,no=40,missing=40
					39:leaf=-0
					40:leaf=22.6138077
	2:[f86<0.0148131382] yes=5,no=6,missing=6
		5:[f38<27.2666664] yes=11,no=12,missing=12
			11:leaf=7.26264572
			12:leaf=15.20086
		6:[f242<0.186095536] yes=13,no=14,missing=14
			13:[f41<0.000928016845] yes=23,no=24,missing=24
				23:[f430<0.0502214059] yes=41,no=42,missing=42
					41:leaf=0.593040586
					42:leaf=9.36014748
				24:[f413<-0.00550901843] yes=43,no=44,missing=44
					43:leaf=1.34157312
					44:leaf=-1.38552368
			14:leaf=15.1705351
booster[3]:
0:[f444<-0.00425037742] yes=1,no=2,missing=2
	1:[f108<0.00674798107] yes=3,no=4,missing=4
		3:[f410<-0.00259920256] yes=7,no=8,missing=8
			7:[f180<-0.00138227222] yes=15,no=16,missing=16
				15:[f160<0.0804749504] yes=31,no=32,missing=32
					31:leaf=0.813418269
					32:leaf=-3.49372768
				16:[f389<0.10443864] yes=33,no=34,missing=34
					33:leaf=3.31411386
					34:leaf=-1.09424925
			8:[f239<0.018184023] yes=17,no=18,missing=18
				17:[f306<0.627906978] yes=35,no=36,missing=36
					35:leaf=1.92587411
					36:leaf=21.464241
				18:[f366<-0.00931012351] yes=37,no=38,missing=38
					37:leaf=6.02935219
					38:leaf=0.299939007
		4:[f253<0.00604521949] yes=9,no=10,missing=10
			9:[f411<0.00532054435] yes=19,no=20,missing=20
				19:[f89<0.0861911625] yes=39,no=40,missing=40
					39:leaf=0.799201429
					40:leaf=6.16558743
				20:[f448<-0.00101816293] yes=41,no=42,missing=42
					41:leaf=3.27897143
					42:leaf=12.5825949
			10:[f78<0.460687965] yes=21,no=22,missing=22
				21:[f38<25.9333324] yes=43,no=44,missing=44
					43:leaf=11.1969986
					44:leaf=27.1822662
				22:[f39<0.358834088] yes=45,no=46,missing=46
					45:leaf=-2.19797993
					46:leaf=7.25309372
	2:[f304<26.333334] yes=5,no=6,missing=6
		5:[f290<0.00010102339] yes=11,no=12,missing=12
			11:[f251<0.00131943345] yes=23,no=24,missing=24
				23:[f311<0.020155713] yes=47,no=48,missing=48
					47:leaf=0.377419382
					48:leaf=-0.355278224
				24:[f355<0.100728959] yes=49,no=50,missing=50
					49:leaf=0.374887317
					50:leaf=3.38906527
			12:[f399<0.00770555669] yes=25,no=26,missing=26
				25:[f422<0.33203125] yes=51,no=52,missing=52
					51:leaf=-0.827616036
					52:leaf=-0.17762132
				26:[f355<0.104555421] yes=53,no=54,missing=54
					53:leaf=1.26308143
					54:leaf=15.4022589
		6:[f328<-0.00115899928] yes=13,no=14,missing=14
			13:[f230<0.442786068] yes=27,no=28,missing=28
				27:[f322<-0.00243282947] yes=55,no=56,missing=56
					55:leaf=-0.641959071
					56:leaf=0.299892724
				28:[f287<-0.00551391114] yes=57,no=58,missing=58
					57:leaf=0.585320055
					58:leaf=-0.510433018
			14:[f427<0.0805929601] yes=29,no=30,missing=30
				29:[f361<-0.00311754784] yes=59,no=60,missing=60
					59:leaf=-2.5563848
					60:leaf=-0.412742496
				30:[f353<0.0179165602] yes=61,no=62,missing=62
					61:leaf=-0.367829621
					62:leaf=0.184078529
booster[4]:
0:[f38<41.4666672] yes=1,no=2,missing=2
	1:[f310<0.883280754] yes=3,no=4,missing=4
		3:[f436<0.00187261309] yes=7,no=8,missing=8
			7:[f44<1] yes=15,no=16,missing=16
				15:[f67<0.00449636951] yes=31,no=32,missing=32
					31:leaf=0.139475465
					32:leaf=-0.270811051
				16:[f394<0.0698387176] yes=33,no=34,missing=34
					33:leaf=2.06637216
					34:leaf=-6.94324207
			8:[f256<-0.00409138482] yes=17,no=18,missing=18
				17:[f103<-0.0110497307] yes=35,no=36,missing=36
					35:leaf=-4.38185644
					36:leaf=-0.595372379
				18:[f65<-0.00271582045] yes=37,no=38,missing=38
					37:leaf=0.481782079
					38:leaf=-0.156550452
		4:[f311<0.0203940831] yes=9,no=10,missing=10
			9:[f386<0.796694219] yes=19,no=20,missing=20
				19:[f239<0.00994547736] yes=39,no=40,missing=40
					39:leaf=11.1340322
					40:leaf=-0.566233993
				20:[f269<0.156889349] yes=41,no=42,missing=42
					41:leaf=1.07697141
					42:leaf=-0.751154959
			10:[f356<0.0488548651] yes=21,no=22,missing=22
				21:[f70<-0.00290498906] yes=43,no=44,missing=44
					43:leaf=-4.73958588
					44:leaf=4.1605649
				22:[f410<-0.000777144218] yes=45,no=46,missing=46
					45:leaf=-0.103998281
					46:leaf=-1.5221082
	2:[f436<-0.00101106672] yes=5,no=6,missing=6
		5:[f433<0.784479856] yes=11,no=12,missing=12
			11:[f291<0.00918638799] yes=23,no=24,missing=24
				23:[f71<0.0192214511] yes=47,no=48,missing=48
					47:leaf=-0.865515947
					48:leaf=9.36085892
				24:[f46<0.0899408981] yes=49,no=50,missing=50
					49:leaf=17.4367504
					50:leaf=1.31171453
			12:[f65<-0.00465509389] yes=25,no=26,missing=26
				25:leaf=5.43403101
				26:[f68<-0.000221891256] yes=51,no=52,missing=52
					51:leaf=-8.99313831
					52:leaf=-3.3945179
		6:[f391<0.0606141649] yes=13,no=14,missing=14
			13:[f315<0.0556512922] yes=27,no=28,missing=28
				27:[f401<0.00825709943] yes=53,no=54,missing=54
					53:leaf=-0.275016844
					54:leaf=2.87067986
				28:[f310<0.872159064] yes=55,no=56,missing=56
					55:leaf=1.75758386
					56:leaf=15.4722986
			14:[f196<0.660000026] yes=29,no=30,missing=30
				29:[f334<-0.000173854409] yes=57,no=58,missing=58
					57:leaf=25.3779736
					58:leaf=5.6001544
				30:[f441<-0.00552498968] yes=59,no=60,missing=60
					59:leaf=13.1900053
					60:leaf=1.88149571
booster[5]:
0:[f69<0.00796462595] yes=1,no=2,missing=2
	1:[f350<0.0698266476] yes=3,no=4,missing=4
		3:[f286<0.00197688537] yes=7,no=8,missing=8
			7:[f385<0.0398476943] yes=15,no=16,missing=16
				15:[f386<0.611650467] yes=31,no=32,missing=32
					31:leaf=9.49037266
					32:leaf=1.13298738
				16:[f271<0.210546255] yes=33,no=34,missing=34
					33:leaf=-0.217765182
					34:leaf=-2.17621875
			8:[f312<0.246841699] yes=17,no=18,missing=18
				17:[f229<0.368323177] yes=35,no=36,missing=36
					35:leaf=-2.75887012
					36:leaf=-0.719845474
				18:[f299<-2.76596456e-05] yes=37,no=38,missing=38
					37:leaf=7.78978395
					38:leaf=-0.725989819
		4:[f383<0.212143451] yes=9,no=10,missing=10
			9:[f230<0.33453238] yes=19,no=20,missing=20
				19:[f369<-0.00486463401] yes=39,no=40,missing=40
					39:leaf=3.80318737
					40:leaf=-2.09950352
				20:[f328<0.00898985565] yes=41,no=42,missing=42
					41:leaf=0.0275215246
					42:leaf=0.89620012
			10:[f370<-0.00309723336] yes=21,no=22,missing=22
				21:[f290<0.00394640025] yes=43,no=44,missing=44
					43:leaf=-0.965979695
					44:leaf=-5.19289255
				22:[f278<0.00282854307] yes=45,no=46,missing=46
					45:leaf=3.06103396
					46:leaf=-0.237336472
	2:[f71<-0.00258436031] yes=5,no=6,missing=6
		5:[f254<-0.00620660605] yes=11,no=12,missing=12
			11:[f395<0.44358936] yes=23,no=24,missing=24
				23:[f66<-0.00146378647] yes=47,no=48,missing=48
					47:leaf=4.1849308
					48:leaf=-1.24212933
				24:[f21<-0.00377844996] yes=49,no=50,missing=50
					49:leaf=8.19700623
					50:leaf=16.892128
			12:[f309<0.0844072625] yes=25,no=26,missing=26
				25:[f282<-0.309144557] yes=51,no=52,missing=52
					51:leaf=17.1647968
					52:leaf=0.402294189
				26:[f304<41.8166656] yes=53,no=54,missing=54
					53:leaf=-1.92286777
					54:leaf=4.20037699
		6:[f386<0.928416491] yes=13,no=14,missing=14
			13:[f320<0.19517754] yes=27,no=28,missing=28
				27:[f48<0.0145144155] yes=55,no=56,missing=56
					55:leaf=19.976099
					56:leaf=0.833998859
				28:[f258<0.00339586707] yes=57,no=58,missing=58
					57:leaf=4.29588604
					58:leaf=17.672205
			14:[f43<0.107847705] yes=29,no=30,missing=30
				29:[f38<24.75] yes=59,no=60,missing=60
					59:leaf=-6.71826744
					60:leaf=5.05296755
				30:leaf=30.37784
booster[6]:
0:[f237<0.0730934814] yes=1,no=2,missing=2
	1:[f276<0.293397009] yes=3,no=4,missing=4
		3:[f101<0.000545555202] yes=7,no=8,missing=8
			7:[f362<-0.00296582119] yes=13,no=14,missing=14
				13:[f345<0.131507263] yes=25,no=26,missing=26
					25:leaf=1.94131172
					26:leaf=-2.94839621
				14:[f287<0.00807858631] yes=27,no=28,missing=28
					27:leaf=-1.59422815
					28:leaf=2.63725209
			8:[f296<-0.00400507497] yes=15,no=16,missing=16
				15:[f312<0.110427395] yes=29,no=30,missing=30
					29:leaf=15.5498638
					30:leaf=0.330325782
				16:[f420<0.53580904] yes=31,no=32,missing=32
					31:leaf=-0.472912431
					32:leaf=2.68928576
		4:leaf=21.0914936
	2:[f237<0.148280725] yes=5,no=6,missing=6
		5:[f327<-0.00107368152] yes=9,no=10,missing=10
			9:[f233<0.104295693] yes=17,no=18,missing=18
				17:[f298<0.0021297487] yes=33,no=34,missing=34
					33:leaf=0.280126035
					34:leaf=-0.421568036
				18:[f440<-0.000379293517] yes=35,no=36,missing=36
					35:leaf=0.0579791404
					36:leaf=-0.792420506
			10:[f54<-0.238948911] yes=19,no=20,missing=20
				19:[f315<0.015154344] yes=37,no=38,missing=38
					37:leaf=10.4330578
					38:leaf=1.38563573
				20:[f429<0.0279581584] yes=39,no=40,missing=40
					39:leaf=0.430717915
					40:leaf=0.0445346721
		6:[f349<0.12347386] yes=11,no=12,missing=12
			11:[f70<-0.00276662339] yes=21,no=22,missing=22
				21:[f50<0.00273273815] yes=41,no=42,missing=42
					41:leaf=-1.12264001
					42:leaf=0.258858621
				22:[f307<0.227018476] yes=43,no=44,missing=44
					43:leaf=-0.0920103043
					44:leaf=-0.955546796
			12:[f230<0.431034476] yes=23,no=24,missing=24
				23:[f298<0.0134146279] yes=45,no=46,missing=46
					45:leaf=0.409074247
					46:leaf=12.3966846
				24:[f447<-0.000654500793] yes=47,no=48,missing=48
					47:leaf=-0.384362906
					48:leaf=-2.35514808
booster[7]:
0:[f324<-0.00175249844] yes=1,no=2,missing=2
	1:[f394<0.104774214] yes=3,no=4,missing=4
		3:[f394<0.104390189] yes=7,no=8,missing=8
			7:[f343<0.194941908] yes=15,no=16,missing=16
				15:[f71<-0.00155240484] yes=31,no=32,missing=32
					31:leaf=-1.0275507
					32:leaf=2.18048382
				16:[f242<0.0998598486] yes=33,no=34,missing=34
					33:leaf=-0.208760783
					34:leaf=0.279250115
			8:[f331<0.00310596963] yes=17,no=18,missing=18
				17:[f292<-0.000408088876] yes=35,no=36,missing=36
					35:leaf=1.99249387
					36:leaf=7.17754078
				18:[f43<0.124388762] yes=37,no=38,missing=38
					37:leaf=-0.227596536
					38:leaf=-7.95315456
		4:[f365<1.37589295e-05] yes=9,no=10,missing=10
			9:[f395<0.539833486] yes=19,no=20,missing=20
				19:[f117<0.278586239] yes=39,no=40,missing=40
					39:leaf=-0.859105468
					40:leaf=6.67544127
				20:[f257<0.00354242511] yes=41,no=42,missing=42
					41:leaf=-2.59549046
					42:leaf=-7.60919333
			10:[f45<0.010416667] yes=21,no=22,missing=22
				21:[f65<-0.00169673294] yes=43,no=44,missing=44
					43:leaf=9.48600101
					44:leaf=1.81226647
				22:[f387<0.0778380781] yes=45,no=46,missing=46
					45:leaf=-0.751879215
					46:leaf=0.5345366
	2:[f64<-0.00485961279] yes=5,no=6,missing=6
		5:[f43<0.127497077] yes=11,no=12,missing=12
			11:[f57<-0.000210336206] yes=23,no=24,missing=24
				23:[f45<0.136772275] yes=47,no=48,missing=48
					47:leaf=-1.38434482
					48:leaf=8.76574326
				24:[f419<0.524725735] yes=49,no=50,missing=50
					49:leaf=0.0668210685
					50:leaf=4.06161499
			12:[f357<0.409113348] yes=25,no=26,missing=26
				25:[f238<0.161391795] yes=51,no=52,missing=52
					51:leaf=-1.31394017
					52:leaf=6.76496172
				26:[f279<0.0338923819] yes=53,no=54,missing=54
					53:leaf=0.983591676
					54:leaf=-3.93152046
		6:[f243<0.349056602] yes=13,no=14,missing=14
			13:[f241<0.0581589974] yes=27,no=28,missing=28
				27:[f433<0.690510988] yes=55,no=56,missing=56
					55:leaf=-0.0411281623
					56:leaf=1.1188556
				28:[f60<-0.00341873057] yes=57,no=58,missing=58
					57:leaf=0.762530208
					58:leaf=-0.841535151
			14:[f63<0.00296124653] yes=29,no=30,missing=30
				29:[f333<-0.00169369869] yes=59,no=60,missing=60
					59:leaf=-0.103964254
					60:leaf=0.188194901
				30:[f330<0.0013367472] yes=61,no=62,missing=62
					61:leaf=0.481727093
					62:leaf=2.26109004
booster[8]:
0:[f445<0.000542885682] yes=1,no=2,missing=2
	1:[f425<0.118752457] yes=3,no=4,missing=4
		3:[f322<-0.00536422245] yes=7,no=8,missing=8
			7:[f352<0.0233303383] yes=15,no=16,missing=16
				15:[f260<0.00491105951] yes=31,no=32,missing=32
					31:leaf=2.9560101
					32:leaf=22.8567448
				16:[f442<-0.00244244235] yes=33,no=34,missing=34
					33:leaf=0.792831659
					34:leaf=-0.733900368
			8:[f423<0.206654415] yes=17,no=18,missing=18
				17:[f45<0.0195860807] yes=35,no=36,missing=36
					35:leaf=0.171229511
					36:leaf=-0.113795348
				18:[f385<0.153624073] yes=37,no=38,missing=38
					37:leaf=-0.443706065
					38:leaf=-2.6617825
		4:[f433<0.361665308] yes=9,no=10,missing=10
			9:[f401<0.0129805347] yes=19,no=20,missing=20
				19:[f394<0.0411609486] yes=39,no=40,missing=40
					39:leaf=9.00424767
					40:leaf=1.17755687
				20:[f43<0.133113086] yes=41,no=42,missing=42
					41:leaf=15.4160242
					42:leaf=4.55984449
			10:[f374<-0.035748139] yes=21,no=22,missing=22
				21:[f44<0.709677398] yes=43,no=44,missing=44
					43:leaf=17.5665817
					44:leaf=6.90627909
				22:[f90<0.0534100235] yes=45,no=46,missing=46
					45:leaf=3.23517847
					46:leaf=-0.437584996
	2:[f344<0.668067217] yes=5,no=6,missing=6
		5:[f68<-0.00374736637] yes=11,no=12,missing=12
			11:[f410<0.00537638087] yes=23,no=24,missing=24
				23:[f380<25.1499996] yes=47,no=48,missing=48
					47:leaf=1.69731688
					48:leaf=0.0817313194
				24:[f280<0.103786558] yes=49,no=50,missing=50
					49:leaf=4.76878786
					50:leaf=-1.47273183
			12:[f380<37.3333321] yes=25,no=26,missing=26
				25:[f57<0.00103048619] yes=51,no=52,missing=52
					51:leaf=0.0836901963
					52:leaf=-0.313519239
				26:[f62<-0.0028825053] yes=53,no=54,missing=54
					53:leaf=-0.923166931
					54:leaf=0.514840245
		6:[f279<0.0763096809] yes=13,no=14,missing=14
			13:[f40<0.454138696] yes=27,no=28,missing=28
				27:[f370<-0.00170467189] yes=55,no=56,missing=56
					55:leaf=-3.42434883
					56:leaf=3.48888636
				28:[f256<-0.00128310442] yes=57,no=58,missing=58
					57:leaf=1.91709602
					58:leaf=10.9394302
			14:[f324<-0.000966140069] yes=29,no=30,missing=30
				29:[f43<0.103452168] yes=59,no=60,missing=60
					59:leaf=-4.52911949
					60:leaf=-9.95866203
				30:[f65<0.00372966216] yes=61,no=62,missing=62
					61:leaf=-1.03491712
					62:leaf=4.37469292
booster[9]:
0:[f335<0.00241005002] yes=1,no=2,missing=2
	1:[f44<0.752735257] yes=3,no=4,missing=4
		3:[f54<0.281463057] yes=7,no=8,missing=8
			7:[f69<0.00212163338] yes=15,no=16,missing=16
				15:[f407<0.000542885682] yes=31,no=32,missing=32
					31:leaf=0.0426043198
					32:leaf=0.443904072
				16:[f271<0.0582380332] yes=33,no=34,missing=34
					33:leaf=0.546419024
					34:leaf=-0.409353316
			8:[f404<0.000419226097] yes=17,no=18,missing=18
				17:[f346<0.359259248] yes=35,no=36,missing=36
					35:leaf=-1.96734762
					36:leaf=-7.51322937
				18:[f83<0.0109238969] yes=37,no=38,missing=38
					37:leaf=7.41904116
					38:leaf=-1.0859592
		4:[f274<0.188082725] yes=9,no=10,missing=10
			9:[f247<-0.00148257311] yes=19,no=20,missing=20
				19:[f315<0.0268632378] yes=39,no=40,missing=40
					39:leaf=0.399166048
					40:leaf=-0.134345993
				20:[f420<0.42828685] yes=41,no=42,missing=42
					41:leaf=-0.595394015
					42:leaf=-0.158846021
			10:[f448<0.00779498089] yes=21,no=22,missing=22
				21:[f320<0.122030742] yes=43,no=44,missing=44
					43:leaf=-0.0592141002
					44:leaf=0.853782117
				22:[f306<0.359788358] yes=45,no=46,missing=46
					45:leaf=34.3309708
					46:leaf=1.92392349
	2:[f442<-0.0056995335] yes=5,no=6,missing=6
		5:[f394<0.105816804] yes=11,no=12,missing=12
			11:[f236<0.149197564] yes=23,no=24,missing=24
				23:[f63<-0.000101348727] yes=47,no=48,missing=48
					47:leaf=-1.70659661
					48:leaf=-4.90377235
				24:[f45<0.018942982] yes=49,no=50,missing=50
					49:leaf=-2.86068177
					50:leaf=1.78271735
			12:[f297<0.0021563014] yes=25,no=26,missing=26
				25:[f68<0.000210803002] yes=51,no=52,missing=52
					51:leaf=3.254601
					52:leaf=-1.76366568
				26:[f50<0.0128290877] yes=53,no=54,missing=54
					53:leaf=11.8215532
					54:leaf=2.0211916
		6:[f258<0.00211759773] yes=13,no=14,missing=14
			13:[f84<0.253578961] yes=27,no=28,missing=28
				27:[f54<0.0315436162] yes=55,no=56,missing=56
					55:leaf=0.579968095
					56:leaf=0.00498744426
				28:[f87<0.0265586358] yes=57,no=58,missing=58
					57:leaf=0.376753598
					58:leaf=3.42180824
			14:[f81<0.164681152] yes=29,no=30,missing=30
				29:[f60<-0.00098283519] yes=59,no=60,missing=60
					59:leaf=-0.611367106
					60:leaf=0.4593364
				30:[f281<0.269676268] yes=61,no=62,missing=62
					61:leaf=-6.01614523
					62:leaf=-1.23217821
booster[10]:
0:[f68<-0.000515998923] yes=1,no=2,missing=2
	1:[f125<0.0129954517] yes=3,no=4,missing=4
		3:[f277<0.026068775] yes=7,no=8,missing=8
			7:[f351<0.074336566] yes=15,no=16,missing=16
				15:[f194<0.382775128] yes=31,no=32,missing=32
					31:leaf=2.70494986
					32:leaf=11.6592083
				16:[f133<0.000385062391] yes=33,no=34,missing=34
					33:leaf=0.820499599
					34:leaf=-2.2306664
			8:[f309<0.0512507632] yes=17,no=18,missing=18
				17:[f103<0.00490876148] yes=35,no=36,missing=36
					35:leaf=0.177198321
					36:leaf=11.1648798
				18:[f395<0.252467066] yes=37,no=38,missing=38
					37:leaf=2.95695019
					38:leaf=-2.4502902
		4:[f344<0.597116172] yes=9,no=10,missing=10
			9:[f396<-0.197921649] yes=19,no=20,missing=20
				19:[f49<0.0506397896] yes=39,no=40,missing=40
					39:leaf=-0.668714583
					40:leaf=-4.04801273
				20:[f393<0.0258894097] yes=41,no=42,missing=42
					41:leaf=-1.20872569
					42:leaf=-0.00606744085
			10:[f242<0.0998598486] yes=21,no=22,missing=22
				21:[f65<-0.0068366793] yes=43,no=44,missing=44
					43:leaf=1.86675346
					44:leaf=-1.91941082
				22:[f201<0.0205523614] yes=45,no=46,missing=46
					45:leaf=6.06677675
					46:leaf=0.357269853
	2:[f404<-0.00281886687] yes=5,no=6,missing=6
		5:[f277<0.052433379] yes=11,no=12,missing=12
			11:[f247<-0.00684977882] yes=23,no=24,missing=24
				23:[f418<36.4500008] yes=47,no=48,missing=48
					47:leaf=3.26207924
					48:leaf=-1.18227363
				24:[f247<-0.00339522492] yes=49,no=50,missing=50
					49:leaf=-0.869964182
					50:leaf=0.376993626
			12:[f69<-0.000153904984] yes=25,no=26,missing=26
				25:[f323<0.00286011118] yes=51,no=52,missing=52
					51:leaf=-0.989110827
					52:leaf=7.26976395
				26:[f328<-0.00156595733] yes=53,no=54,missing=54
					53:leaf=7.13046265
					54:leaf=2.13161707
		6:[f354<0.0525486059] yes=13,no=14,missing=14
			13:[f413<-0.0271984879] yes=27,no=28,missing=28
				27:[f44<0.681818187] yes=55,no=56,missing=56
					55:leaf=-2.80825019
					56:leaf=2.20633221
				28:[f407<0.000624820008] yes=57,no=58,missing=58
					57:leaf=0.0570639111
					58:leaf=-0.190361261
			14:[f290<0.000233884566] yes=29,no=30,missing=30
				29:[f330<0.00208191923] yes=59,no=60,missing=60
					59:leaf=-0.09359207
					60:leaf=1.62854815
				30:[f328<0.00219602091] yes=61,no=62,missing=62
					61:leaf=0.755162001
					62:leaf=3.17644644
booster[11]:
0:[f65<0.00301700202] yes=1,no=2,missing=2
	1:[f52<0.0665518343] yes=3,no=4,missing=4
		3:[f317<0.122605979] yes=7,no=8,missing=8
			7:[f277<0.0198083725] yes=15,no=16,missing=16
				15:[f391<0.0182242729] yes=31,no=32,missing=32
					31:leaf=1.55906594
					32:leaf=-0.591899633
				16:[f206<0.0640041903] yes=33,no=34,missing=34
					33:leaf=0.330964506
					34:leaf=-0.151892334
			8:[f71<-0.0021373448] yes=17,no=18,missing=18
				17:[f127<0.0427382477] yes=35,no=36,missing=36
					35:leaf=2.85097718
					36:leaf=-3.35136247
				18:[f434<-0.0098793311] yes=37,no=38,missing=38
					37:leaf=8.38667488
					38:leaf=1.82033014
		4:[f312<0.0739601851] yes=9,no=10,missing=10
			9:[f53<0.563583791] yes=19,no=20,missing=20
				19:[f49<0.0293458495] yes=39,no=40,missing=40
					39:leaf=-0.071516186
					40:leaf=0.868203402
				20:[f305<0.396459579] yes=41,no=42,missing=42
					41:leaf=-0.0140747447
					42:leaf=-2.28935194
			10:[f312<0.0889006332] yes=21,no=22,missing=22
				21:[f254<0.000385097577] yes=43,no=44,missing=44
					43:leaf=-0.215755373
					44:leaf=-0.940613687
				22:[f317<0.023867622] yes=45,no=46,missing=46
					45:leaf=-1.31593382
					46:leaf=-0.0473844893
	2:[f335<-0.0107483212] yes=5,no=6,missing=6
		5:[f421<0.262242317] yes=11,no=12,missing=12
			11:[f250<0.00349882315] yes=23,no=24,missing=24
				23:[f314<0.206758514] yes=47,no=48,missing=48
					47:leaf=0.348947793
					48:leaf=9.76089764
				24:[f70<-0.00340890069] yes=49,no=50,missing=50
					49:leaf=0.0553734936
					50:leaf=9.58465195
			12:[f38<27.0333328] yes=25,no=26,missing=26
				25:[f38<25.7166672] yes=51,no=52,missing=52
					51:leaf=17.4951534
					52:leaf=30.1311035
				26:[f3<0.125452593] yes=53,no=54,missing=54
					53:leaf=-3.09655309
					54:leaf=3.24907804
		6:[f447<0.0023329691] yes=13,no=14,missing=14
			13:[f422<0.419999987] yes=27,no=28,missing=28
				27:[f372<0.000982473022] yes=55,no=56,missing=56
					55:leaf=0.384591579
					56:leaf=-0.249410421
				28:[f389<0.111932456] yes=57,no=58,missing=58
					57:leaf=1.19784808
					58:leaf=-1.82577348
			14:[f239<0.0126712853] yes=29,no=30,missing=30
				29:[f307<0.00168475439] yes=59,no=60,missing=60
					59:leaf=14.4854603
					60:leaf=3.97626901
				30:[f228<35.4500008] yes=61,no=62,missing=62
					61:leaf=1.0821476
					62:leaf=-0.622342288
booster[12]:
0:[f306<0.45025295] yes=1,no=2,missing=2
	1:[f228<22.6333332] yes=3,no=4,missing=4
		3:[f418<24.9833336] yes=7,no=8,missing=8
			7:[f255<-0.0128294406] yes=15,no=16,missing=16
				15:[f40<0.450413227] yes=31,no=32,missing=32
					31:leaf=6.8630023
					32:leaf=-0.374929249
				16:[f260<0.00655567646] yes=33,no=34,missing=34
					33:leaf=-0.357392877
					34:leaf=-3.2355516
			8:[f359<2] yes=17,no=18,missing=18
				17:[f38<16.3500004] yes=35,no=36,missing=36
					35:leaf=21.0826321
					36:leaf=-0.178255707
				18:[f367<-0.00212427508] yes=37,no=38,missing=38
					37:leaf=-0.55027318
					38:leaf=1.40820158
		4:[f239<0.0416445807] yes=9,no=10,missing=10
			9:[f437<-0.00849874597] yes=19,no=20,missing=20
				19:[f244<0.0473140366] yes=39,no=40,missing=40
					39:leaf=-1.71617854
					40:leaf=0.64217037
				20:[f382<0.502325594] yes=41,no=42,missing=42
					41:leaf=-0.102901042
					42:leaf=0.293630749
			10:[f257<-0.0156355873] yes=21,no=22,missing=22
				21:[f76<26.833334] yes=43,no=44,missing=44
					43:leaf=13.9126482
					44:leaf=3.40584803
				22:[f92<-0.221727818] yes=45,no=46,missing=46
					45:leaf=2.26262021
					46:leaf=0.233413056
	2:[f228<23.2666664] yes=5,no=6,missing=6
		5:[f405<-0.00364240212] yes=11,no=12,missing=12
			11:[f278<0.0153451497] yes=23,no=24,missing=24
				23:[f282<0.00542470952] yes=47,no=48,missing=48
					47:leaf=-5.79868221
					48:leaf=-1.45900452
				24:[f163<0.0304669458] yes=49,no=50,missing=50
					49:leaf=-2.47770524
					50:leaf=2.68461251
			12:[f394<0.0851691365] yes=25,no=26,missing=26
				25:[f374<0.00169515493] yes=51,no=52,missing=52
					51:leaf=-1.04058194
					52:leaf=0.103157073
				26:[f327<0.000270603952] yes=53,no=54,missing=54
					53:leaf=0.701373279
					54:leaf=-0.575437725
		6:[f326<-0.0254790559] yes=13,no=14,missing=14
			13:[f312<0.254618824] yes=27,no=28,missing=28
				27:[f411<0.00110416685] yes=55,no=56,missing=56
					55:leaf=3.44028807
					56:leaf=-2.07173848
				28:[f68<-0.00181796681] yes=57,no=58,missing=58
					57:leaf=-0.955349803
					58:leaf=16.2825794
			14:[f407<0.00204026117] yes=29,no=30,missing=30
				29:[f261<-0.00518827979] yes=59,no=60,missing=60
					59:leaf=0.610404789
					60:leaf=-0.0186943877
				30:[f284<-0.00173668994] yes=61,no=62,missing=62
					61:leaf=0.162214011
					62:leaf=-0.526165247
booster[13]:
0:[f316<0.00222522439] yes=1,no=2,missing=2
	1:[f314<0.0476379506] yes=3,no=4,missing=4
		3:[f387<0.102077641] yes=7,no=8,missing=8
			7:[f391<0.0132107325] yes=15,no=16,missing=16
				15:[f15<0.490993708] yes=31,no=32,missing=32
					31:leaf=19.2050629
					32:leaf=-2.56566405
				16:[f246<-0.000967995496] yes=33,no=34,missing=34
					33:leaf=3.81385303
					34:leaf=-0.354495496
			8:[f38<28.4833336] yes=17,no=18,missing=18
				17:leaf=17.034462
				18:[f0<20.9666672] yes=35,no=36,missing=36
					35:leaf=-0.614833057
					36:leaf=1.51290059
		4:[f231<0.287190109] yes=9,no=10,missing=10
			9:[f331<-0.00268859998] yes=19,no=20,missing=20
				19:[f107<0.0134042716] yes=37,no=38,missing=38
					37:leaf=0.199812442
					38:leaf=11.0193338
				20:[f357<0.537073731] yes=39,no=40,missing=40
					39:leaf=-1.14424396
					40:leaf=0.248876214
			10:[f38<22.6166668] yes=21,no=22,missing=22
				21:leaf=21.9616909
				22:[f40<0.445214093] yes=41,no=42,missing=42
					41:leaf=7.73974752
					42:leaf=1.4664886
	2:[f246<0.00570429536] yes=5,no=6,missing=6
		5:[f172<-0.00484778592] yes=11,no=12,missing=12
			11:[f440<-0.00417943625] yes=23,no=24,missing=24
				23:[f285<0.00569107756] yes=43,no=44,missing=44
					43:leaf=-0.676062584
					44:leaf=3.78494954
				24:[f42<0.459459454] yes=45,no=46,missing=46
					45:leaf=0.424862981
					46:leaf=3.39434242
			12:[f421<0.000762330717] yes=25,no=26,missing=26
				25:[f442<0.0010215519] yes=47,no=48,missing=48
					47:leaf=-0.505112052
					48:leaf=0.338931859
				26:[f386<0.569190621] yes=49,no=50,missing=50
					49:leaf=-0.35681054
					50:leaf=0.0584330596
		6:[f107<0.0097109396] yes=13,no=14,missing=14
			13:[f228<37.4833336] yes=27,no=28,missing=28
				27:[f253<0.000520304602] yes=51,no=52,missing=52
					51:leaf=-0.56187135
					52:leaf=0.249377668
				28:[f375<0.000672091905] yes=53,no=54,missing=54
					53:leaf=-2.69438052
					54:leaf=-0.108153418
			14:[f287<0.00898378156] yes=29,no=30,missing=30
				29:[f55<8] yes=55,no=56,missing=56
					55:leaf=0.947943866
					56:leaf=7.37600946
				30:[f14<0.0528425947] yes=57,no=58,missing=58
					57:leaf=6.34606361
					58:leaf=21.4898682
booster[14]:
0:[f259<0.00146160612] yes=1,no=2,missing=2
	1:[f78<0.45252353] yes=3,no=4,missing=4
		3:[f307<0.00177472783] yes=7,no=8,missing=8
			7:[f70<-0.0121666892] yes=15,no=16,missing=16
				15:[f396<0.0644564778] yes=31,no=32,missing=32
					31:leaf=1.41298199
					32:leaf=8.89743614
				16:[f238<0.183800757] yes=33,no=34,missing=34
					33:leaf=0.33407405
					34:leaf=-1.30024099
			8:[f313<0.253932536] yes=17,no=18,missing=18
				17:[f241<0.0217832848] yes=35,no=36,missing=36
					35:leaf=1.39726913
					36:leaf=-0.15933156
				18:[f273<0.12957108] yes=37,no=38,missing=38
					37:leaf=-0.690496445
					38:leaf=3.0107739
		4:[f40<0.37925446] yes=9,no=10,missing=10
			9:[f432<0.0629342571] yes=19,no=20,missing=20
				19:[f283<5] yes=39,no=40,missing=40
					39:leaf=2.99602985
					40:leaf=-1.64476132
				20:[f446<-0.00157217868] yes=41,no=42,missing=42
					41:leaf=0.197456628
					42:leaf=-1.45968521
			10:[f43<0.021329036] yes=21,no=22,missing=22
				21:[f392<0.00134858734] yes=43,no=44,missing=44
					43:leaf=19.8889847
					44:leaf=1.68457699
				22:[f79<0.188578591] yes=45,no=46,missing=46
					45:leaf=0.123013683
					46:leaf=-0.610274613
	2:[f313<0.130657345] yes=5,no=6,missing=6
		5:[f391<0.0541595332] yes=11,no=12,missing=12
			11:[f105<-0.00334356283] yes=23,no=24,missing=24
				23:[f237<0.0811263621] yes=47,no=48,missing=48
					47:leaf=3.35639811
					48:leaf=-0.493990779
				24:[f442<-0.0053049] yes=49,no=50,missing=50
					49:leaf=2.3179493
					50:leaf=0.479782611
			12:[f398<-0.00510851853] yes=25,no=26,missing=26
				25:[f380<26.3166676] yes=51,no=52,missing=52
					51:leaf=-2.15892458
					52:leaf=7.59940147
				26:[f239<0.052433379] yes=53,no=54,missing=54
					53:leaf=-1.61465824
					54:leaf=7.21296692
		6:[f304<17.3999996] yes=13,no=14,missing=14
			13:[f256<-0.00117599615] yes=27,no=28,missing=28
				27:[f365<0.00399339292] yes=55,no=56,missing=56
					55:leaf=4.36421061
					56:leaf=20.0731487
				28:[f447<0.00024995947] yes=57,no=58,missing=58
					57:leaf=2.53790879
					58:leaf=-3.56123018
			14:[f347<0.0676680729] yes=29,no=30,missing=30
				29:[f198<0.144457191] yes=59,no=60,missing=60
					59:leaf=-0.719615757
					60:leaf=0.125830293
				30:[f361<-0.0101239737] yes=61,no=62,missing=62
					61:leaf=-1.88046813
					62:leaf=0.127311379
booster[15]:
0:[f296<0.00189398194] yes=1,no=2,missing=2
	1:[f373<-0.00280865678] yes=3,no=4,missing=4
		3:[f285<0.00535816001] yes=7,no=8,missing=8
			7:[f329<-0.002229593] yes=15,no=16,missing=16
				15:[f445<-0.00375502906] yes=31,no=32,missing=32
					31:leaf=4.37342548
					32:leaf=0.525908828
				16:[f430<0.00186765578] yes=33,no=34,missing=34
					33:leaf=-2.04031181
					34:leaf=0.0949304178
			8:[f448<-0.000588152616] yes=17,no=18,missing=18
				17:[f289<-0.00435137702] yes=35,no=36,missing=36
					35:leaf=9.44152451
					36:leaf=-0.766130984
				18:[f330<-2.19004796e-05] yes=37,no=38,missing=38
					37:leaf=1.37867475
					38:leaf=4.9075346
		4:[f407<0.000312497141] yes=9,no=10,missing=10
			9:[f349<0.027655784] yes=19,no=20,missing=20
				19:[f419<0.519313753] yes=39,no=40,missing=40
					39:leaf=-0.0292621814
					40:leaf=1.03191018
				20:[f310<0.889393926] yes=41,no=42,missing=42
					41:leaf=-0.397430211
					42:leaf=0.518986046
			10:[f71<-0.00196632673] yes=21,no=22,missing=22
				21:[f247<0.00083875563] yes=43,no=44,missing=44
					43:leaf=-0.466022432
					44:leaf=0.258258343
				22:[f267<0.191280216] yes=45,no=46,missing=46
					45:leaf=1.46778703
					46:leaf=0.114927426
	2:[f267<0.353387386] yes=5,no=6,missing=6
		5:[f240<0.0427037477] yes=11,no=12,missing=12
			11:[f290<0.0003312146] yes=23,no=24,missing=24
				23:[f318<0.0389273353] yes=47,no=48,missing=48
					47:leaf=3.85905957
					48:leaf=-0.0101392809
				24:[f344<0.433198392] yes=49,no=50,missing=50
					49:leaf=0.0565619059
					50:leaf=-0.839216471
			12:[f38<39.5499992] yes=25,no=26,missing=26
				25:[f67<-0.0012637995] yes=51,no=52,missing=52
					51:leaf=1.85353327
					52:leaf=-0.263480753
				26:[f369<-0.00464251311] yes=53,no=54,missing=54
					53:leaf=13.9093943
					54:leaf=2.65556574
		6:[f49<0.0195035152] yes=13,no=14,missing=14
			13:[f267<0.354256094] yes=27,no=28,missing=28
				27:[f57<-0.00304661179] yes=55,no=56,missing=56
					55:leaf=25.4778843
					56:leaf=0.729465425
				28:[f292<0.00160428428] yes=57,no=58,missing=58
					57:leaf=0.48050645
					58:leaf=2.38534236
			14:[f413<0.00364240911] yes=29,no=30,missing=30
				29:[f294<0.00190040271] yes=59,no=60,missing=60
					59:leaf=0.30206576
					60:leaf=-0.411907166
				30:[f59<0.00948348548] yes=61,no=62,missing=62
					61:leaf=0.604543447
					62:leaf=3.74032235
booster[16]:
0:[f313<0.0981237963] yes=1,no=2,missing=2
	1:[f389<0.335325748] yes=3,no=4,missing=4
		3:[f294<-0.000473763037] yes=7,no=8,missing=8
			7:[f40<0.444444448] yes=15,no=16,missing=16
				15:[f76<28.6166668] yes=31,no=32,missing=32
					31:leaf=-0.176632613
					32:leaf=-1.42199171
				16:[f448<0.00364827085] yes=33,no=34,missing=34
					33:leaf=-0.255191088
					34:leaf=1.68390489
			8:[f440<-0.00100977323] yes=17,no=18,missing=18
				17:[f248<0.0212777257] yes=35,no=36,missing=36
					35:leaf=0.580606282
					36:leaf=8.25477695
				18:[f274<0.100415722] yes=37,no=38,missing=38
					37:leaf=0.602757633
					38:leaf=-0.452608138
		4:[f49<0.0271890685] yes=9,no=10,missing=10
			9:[f291<3.15500038e-05] yes=19,no=20,missing=20
				19:[f429<0.0558803752] yes=39,no=40,missing=40
					39:leaf=-0.605478406
					40:leaf=-8.2415514
				20:[f246<0.00348906242] yes=41,no=42,missing=42
					41:leaf=-4.96842861
					42:leaf=2.20109248
			10:[f418<21.7166672] yes=21,no=22,missing=22
				21:[f41<0.123753622] yes=43,no=44,missing=44
					43:leaf=-1.47162426
					44:leaf=10.1979761
				22:[f291<8.6884058e-05] yes=45,no=46,missing=46
					45:leaf=-1.98453844
					46:leaf=0.272355855
	2:[f253<0.00403401908] yes=5,no=6,missing=6
		5:[f445<0.00341561926] yes=11,no=12,missing=12
			11:[f305<0.588465035] yes=23,no=24,missing=24
				23:[f254<-0.00429597124] yes=47,no=48,missing=48
					47:leaf=0.554766059
					48:leaf=0.067654334
				24:[f390<0.305878818] yes=49,no=50,missing=50
					49:leaf=-0.993162215
					50:leaf=21.4320736
			12:[f244<-0.220544413] yes=25,no=26,missing=26
				25:[f325<0.00180048053] yes=51,no=52,missing=52
					51:leaf=0.495702475
					52:leaf=5.86681557
				26:[f55<7] yes=53,no=54,missing=54
					53:leaf=-0.418611974
					54:leaf=0.25019151
		6:[f64<-0.00129707938] yes=13,no=14,missing=14
			13:[f298<-0.00559220929] yes=27,no=28,missing=28
				27:[f355<0.0399120599] yes=55,no=56,missing=56
					55:leaf=2.02117205
					56:leaf=-4.39494419
				28:[f395<0.485143095] yes=57,no=58,missing=58
					57:leaf=0.110411063
					58:leaf=2.68583488
			14:[f69<-0.000275368307] yes=29,no=30,missing=30
				29:[f308<0.360515028] yes=59,no=60,missing=60
					59:leaf=-1.00519347
					60:leaf=1.26632965
				30:[f278<0.097468093] yes=61,no=62,missing=62
					61:leaf=-1.45543349
					62:leaf=8.74379444
booster[17]:
0:[f441<0.00373794325] yes=1,no=2,missing=2
	1:[f404<-0.000377243065] yes=3,no=4,missing=4
		3:[f260<0.0150872264] yes=7,no=8,missing=8
			7:[f354<0.00084838632] yes=15,no=16,missing=16
				15:[f259<0.003049433] yes=31,no=32,missing=32
					31:leaf=-2.42223287
					32:leaf=2.51705074
				16:[f428<0.0203923099] yes=33,no=34,missing=34
					33:leaf=1.03201354
					34:leaf=-0.107663319
			8:[f335<0.00432574889] yes=17,no=18,missing=18
				17:[f345<0.259874761] yes=35,no=36,missing=36
					35:leaf=-1.8648932
					36:leaf=9.44570732
				18:[f438<0.00123876787] yes=37,no=38,missing=38
					37:leaf=6.27334166
					38:leaf=-1.37971699
		4:[f40<0.396866828] yes=9,no=10,missing=10
			9:[f353<0.015297085] yes=19,no=20,missing=20
				19:[f444<-0.00519825518] yes=39,no=40,missing=40
					39:leaf=19.9800797
					40:leaf=2.37223077
				20:[f436<-0.0066766697] yes=41,no=42,missing=42
					41:leaf=-2.20534635
					42:leaf=0.484754294
			10:[f451<0.00588798709] yes=21,no=22,missing=22
				21:[f306<0.404157043] yes=43,no=44,missing=44
					43:leaf=-0.404101133
					44:leaf=0.0198186189
				22:[f392<0.00263227173] yes=45,no=46,missing=46
					45:leaf=-2.05467129
					46:leaf=0.576220334
	2:[f425<0.0660831258] yes=5,no=6,missing=6
		5:[f247<0.002344426] yes=11,no=12,missing=12
			11:[f353<0.0672810003] yes=23,no=24,missing=24
				23:[f411<-0.00301204808] yes=47,no=48,missing=48
					47:leaf=1.31009173
					48:leaf=0.172931105
				24:[f65<0.00155544095] yes=49,no=50,missing=50
					49:leaf=-2.14223266
					50:leaf=-10.4809074
			12:[f356<0.0791077986] yes=25,no=26,missing=26
				25:[f297<-0.003740852] yes=51,no=52,missing=52
					51:leaf=-0.961632788
					52:leaf=3.48604798
				26:[f386<0.734375] yes=53,no=54,missing=54
					53:leaf=2.33943701
					54:leaf=-0.522067845
		6:[f60<0.0060042073] yes=13,no=14,missing=14
			13:[f248<0.00719270483] yes=27,no=28,missing=28
				27:[f433<0.52593106] yes=55,no=56,missing=56
					55:leaf=-0.580855012
					56:leaf=1.87512445
				28:[f394<0.0778720528] yes=57,no=58,missing=58
					57:leaf=-0.794801414
					58:leaf=5.51142073
			14:[f229<0.457533091] yes=29,no=30,missing=30
				29:[f60<0.00840328634] yes=59,no=60,missing=60
					59:leaf=-4.60549307
					60:leaf=0.18952699
				30:[f117<0.00557266269] yes=61,no=62,missing=62
					61:leaf=-0.640320241
					62:leaf=-9.94362831
booster[18]:
0:[f80<0.376344085] yes=1,no=2,missing=2
	1:[f309<0.0168669615] yes=3,no=4,missing=4
		3:[f65<-0.0149689037] yes=7,no=8,missing=8
			7:[f49<0.0264924429] yes=15,no=16,missing=16
				15:leaf=12.6029263
				16:[f0<29.1166668] yes=31,no=32,missing=32
					31:leaf=0.791188836
					32:leaf=-0.0832486674
			8:[f281<0.324207932] yes=17,no=18,missing=18
				17:[f387<0.0494092107] yes=33,no=34,missing=34
					33:leaf=6.91200256
					34:leaf=-0.666045129
				18:[f359<1] yes=35,no=36,missing=36
					35:leaf=9.24506474
					36:leaf=0.101349607
		4:[f342<27.2999992] yes=9,no=10,missing=10
			9:[f216<-0.00256005721] yes=19,no=20,missing=20
				19:[f39<0.55993396] yes=37,no=38,missing=38
					37:leaf=-0.464326143
					38:leaf=3.58496642
				20:[f59<0.00762223778] yes=39,no=40,missing=40
					39:leaf=0.202414021
					40:leaf=-0.682967901
			10:[f332<-0.00422725827] yes=21,no=22,missing=22
				21:[f214<0.00399339618] yes=41,no=42,missing=42
					41:leaf=-0.580421686
					42:leaf=1.11241639
				22:[f399<-0.0012330024] yes=43,no=44,missing=44
					43:leaf=0.106519021
					44:leaf=-0.163145944
	2:[f66<-0.00758251734] yes=5,no=6,missing=6
		5:[f393<0.0418939553] yes=11,no=12,missing=12
			11:[f396<-0.115390748] yes=23,no=24,missing=24
				23:[f252<0.00157816918] yes=45,no=46,missing=46
					45:leaf=5.14104366
					46:leaf=-2.79962969
				24:[f411<0.00015465969] yes=47,no=48,missing=48
					47:leaf=-1.02026522
					48:leaf=-3.93338966
			12:[f358<-0.0223330595] yes=25,no=26,missing=26
				25:[f404<0.000996537972] yes=49,no=50,missing=50
					49:leaf=2.01012826
					50:leaf=-1.56966436
				26:[f448<0.0159247965] yes=51,no=52,missing=52
					51:leaf=-0.714222908
					52:leaf=-11.2032547
		6:[f398<-0.00294287433] yes=13,no=14,missing=14
			13:[f292<0.00719527947] yes=27,no=28,missing=28
				27:[f432<0.0550612286] yes=53,no=54,missing=54
					53:leaf=1.43513405
					54:leaf=-0.182507083
				28:[f97<0.00641996181] yes=55,no=56,missing=56
					55:leaf=-3.73272943
					56:leaf=5.42281818
			14:[f266<19] yes=29,no=30,missing=30
				29:[f451<0.00745433196] yes=57,no=58,missing=58
					57:leaf=-1.34902501
					58:leaf=4.47010803
				30:[f375<-0.00825886149] yes=59,no=60,missing=60
					59:leaf=-0.485844135
					60:leaf=0.312163353
booster[19]:
0:[f372<-0.00154485204] yes=1,no=2,missing=2
	1:[f330<-0.00579177262] yes=3,no=4,missing=4
		3:[f381<0.256011516] yes=7,no=8,missing=8
			7:[f258<-0.00168433529] yes=15,no=16,missing=16
				15:[f46<0.117494516] yes=31,no=32,missing=32
					31:leaf=0.842583239
					32:leaf=15.4241972
				16:[f38<29.6499996] yes=33,no=34,missing=34
					33:leaf=0.242021784
					34:leaf=5.19552135
			8:[f356<0.0488548651] yes=17,no=18,missing=18
				17:[f69<0.00215834938] yes=35,no=36,missing=36
					35:leaf=12.0675383
					36:leaf=-3.08115172
				18:[f48<0.13089478] yes=37,no=38,missing=38
					37:leaf=-0.458935916
					38:leaf=2.55761552
		4:[f342<25.2833328] yes=9,no=10,missing=10
			9:[f333<-0.000856118044] yes=19,no=20,missing=20
				19:[f351<0.0673891902] yes=39,no=40,missing=40
					39:leaf=7.52105427
					40:leaf=-1.0285517
				20:[f89<0.0269232374] yes=41,no=42,missing=42
					41:leaf=-2.91063833
					42:leaf=-0.0722471401
			10:[f304<26.416666] yes=21,no=22,missing=22
				21:[f389<0.237765551] yes=43,no=44,missing=44
					43:leaf=-0.129452139
					44:leaf=-1.35248101
				22:[f294<-0.00867001992] yes=45,no=46,missing=46
					45:leaf=-1.36367369
					46:leaf=0.117797688
	2:[f323<0.000296792248] yes=5,no=6,missing=6
		5:[f133<0.00254713255] yes=11,no=12,missing=12
			11:[f365<0.00716252765] yes=23,no=24,missing=24
				23:[f364<-0.0080285063] yes=47,no=48,missing=48
					47:leaf=-1.01237094
					48:leaf=-0.0767458975
				24:[f43<0.108217575] yes=49,no=50,missing=50
					49:leaf=-0.0848262236
					50:leaf=2.00660586
			12:[f145<0.00237852824] yes=25,no=26,missing=26
				25:[f311<0.0138209509] yes=51,no=52,missing=52
					51:leaf=-0.611701429
					52:leaf=0.606479228
				26:[f250<-0.0221092068] yes=53,no=54,missing=54
					53:leaf=7.37131405
					54:leaf=-0.570321798
		6:[f434<0.0998545066] yes=13,no=14,missing=14
			13:[f62<0.000507515273] yes=27,no=28,missing=28
				27:[f442<0.00172682747] yes=55,no=56,missing=56
					55:leaf=0.543171465
					56:leaf=-0.123328499
				28:[f288<-0.00554567808] yes=57,no=58,missing=58
					57:leaf=-1.31415427
					58:leaf=0.0885138437
			14:[f228<29.25] yes=29,no=30,missing=30
				29:[f400<-0.000220988557] yes=59,no=60,missing=60
					59:leaf=-0.0812999532
					60:leaf=-1.34853792
				30:[f108<0.00700866524] yes=61,no=62,missing=62
					61:leaf=0.027249407
					62:leaf=2.64994073
booster[20]:
0:[f355<0.0510829873] yes=1,no=2,missing=2
	1:[f222<0.00173346919] yes=3,no=4,missing=4
		3:[f449<0.00398791675] yes=7,no=8,missing=8
			7:[f56<-0.00116805232] yes=15,no=16,missing=16
				15:[f330<0.00208191923] yes=31,no=32,missing=32
					31:leaf=0.355478853
					32:leaf=1.174335
				16:[f291<-0.00145419128] yes=33,no=34,missing=34
					33:leaf=-0.37632826
					34:leaf=0.227609083
			8:[f239<0.0342819393] yes=17,no=18,missing=18
				17:[f43<0.0236012209] yes=35,no=36,missing=36
					35:leaf=5.26811838
					36:leaf=-1.06150854
				18:[f425<0.0160293635] yes=37,no=38,missing=38
					37:leaf=-2.57807922
					38:leaf=0.659640074
		4:[f423<0.132742405] yes=9,no=10,missing=10
			9:[f449<0.00730505539] yes=19,no=20,missing=20
				19:[f282<0.0520645007] yes=39,no=40,missing=40
					39:leaf=-0.238507226
					40:leaf=0.339431137
				20:[f431<0.0192360003] yes=41,no=42,missing=42
					41:leaf=12.0434694
					42:leaf=1.34791958
			10:[f266<25.5333328] yes=21,no=22,missing=22
				21:[f44<0.867768586] yes=43,no=44,missing=44
					43:leaf=1.13799977
					44:leaf=-2.55646324
				22:[f329<-0.00230471743] yes=45,no=46,missing=46
					45:leaf=-2.49357486
					46:leaf=-0.788611889
	2:[f84<0.32259497] yes=5,no=6,missing=6
		5:[f371<0.00282115396] yes=11,no=12,missing=12
			11:[f307<0.263050705] yes=23,no=24,missing=24
				23:[f374<0.015213903] yes=47,no=48,missing=48
					47:leaf=-0.107039779
					48:leaf=-1.41101408
				24:[f402<0.013636752] yes=49,no=50,missing=50
					49:leaf=0.875939071
					50:leaf=14.4431801
			12:[f429<0.027159201] yes=25,no=26,missing=26
				25:[f50<0.00707041984] yes=51,no=52,missing=52
					51:leaf=-1.14651942
					52:leaf=0.090212591
				26:[f372<-0.0136926183] yes=53,no=54,missing=54
					53:leaf=-1.7929343
					54:leaf=0.488152593
		6:[f288<-0.00750193326] yes=13,no=14,missing=14
			13:[f362<0.002774572] yes=27,no=28,missing=28
				27:[f241<0.048075296] yes=55,no=56,missing=56
					55:leaf=7.19051886
					56:leaf=12.7340355
				28:[f0<29.5666676] yes=57,no=58,missing=58
					57:leaf=1.54784942
					58:leaf=-2.20742536
			14:[f239<0.0528293513] yes=29,no=30,missing=30
				29:[f270<0.332326293] yes=59,no=60,missing=60
					59:leaf=-0.813092232
					60:leaf=2.57807636
				30:[f368<0.00069109007] yes=61,no=62,missing=62
					61:leaf=-1.29863477
					62:leaf=-9.90028
booster[21]:
0:[f291<-0.000171746622] yes=1,no=2,missing=2
	1:[f51<0.0774275139] yes=3,no=4,missing=4
		3:[f280<0.14973262] yes=7,no=8,missing=8
			7:[f259<-0.01267015] yes=15,no=16,missing=16
				15:[f231<0.171412677] yes=31,no=32,missing=32
					31:leaf=1.74564934
					32:leaf=-1.99739754
				16:[f447<0.000449381041] yes=33,no=34,missing=34
					33:leaf=-0.132496372
					34:leaf=0.137975305
			8:[f81<0.184306875] yes=17,no=18,missing=18
				17:[f406<-0.0018247515] yes=35,no=36,missing=36
					35:leaf=2.73832178
					36:leaf=0.131118312
				18:[f427<0.213752806] yes=37,no=38,missing=38
					37:leaf=2.26813221
					38:leaf=9.06104183
		4:[f369<1.6437516e-05] yes=9,no=10,missing=10
			9:[f318<0.0715515092] yes=19,no=20,missing=20
				19:[f237<0.117138281] yes=39,no=40,missing=40
					39:leaf=0.867564023
					40:leaf=-1.10328543
				20:[f328<0.000861500273] yes=41,no=42,missing=42
					41:leaf=0.539449334
					42:leaf=-0.421559274
			10:[f64<0.00455830013] yes=21,no=22,missing=22
				21:[f279<0.0595188588] yes=43,no=44,missing=44
					43:leaf=1.16089797
					44:leaf=0.262864858
				22:[f280<0.0899575949] yes=45,no=46,missing=46
					45:leaf=-4.05238295
					46:leaf=1.679106
	2:[f421<0.100616105] yes=5,no=6,missing=6
		5:[f251<-0.00248853955] yes=11,no=12,missing=12
			11:[f409<-0.00735061569] yes=23,no=24,missing=24
				23:[f310<0.619266033] yes=47,no=48,missing=48
					47:leaf=10.0517616
					48:leaf=1.7974261
				24:[f69<0.0242440291] yes=49,no=50,missing=50
					49:leaf=0.0679076239
					50:leaf=6.91634846
			12:[f401<-0.0257455669] yes=25,no=26,missing=26
				25:[f238<0.225334018] yes=51,no=52,missing=52
					51:leaf=-3.71501732
					52:leaf=3.63947392
				26:[f248<0.0212777257] yes=53,no=54,missing=54
					53:leaf=-0.303446352
					54:leaf=2.99114347
		6:[f253<0.00355070806] yes=13,no=14,missing=14
			13:[f351<0.251226813] yes=27,no=28,missing=28
				27:[f67<0.0116250552] yes=55,no=56,missing=56
					55:leaf=-0.0121991141
					56:leaf=1.64583123
				28:[f268<0.611231089] yes=57,no=58,missing=58
					57:leaf=0.525578976
					58:leaf=-2.70073462
			14:[f285<-0.00269098091] yes=29,no=30,missing=30
				29:[f385<0.11109487] yes=59,no=60,missing=60
					59:leaf=-1.40731215
					60:leaf=-5.35073519
				30:[f306<0.390013486] yes=61,no=62,missing=62
					61:leaf=3.81747866
					62:leaf=-0.580508292
booster[22]:
0:[f286<-0.00791162904] yes=1,no=2,missing=2
	1:[f318<0.0607188903] yes=3,no=4,missing=4
		3:[f333<0.00684045954] yes=7,no=8,missing=8
			7:[f371<-0.00242843223] yes=15,no=16,missing=16
				15:[f287<0.00953032356] yes=29,no=30,missing=30
					29:leaf=5.86955547
					30:leaf=-0.952209353
				16:[f78<0.678977251] yes=31,no=32,missing=32
					31:leaf=0.926411271
					32:leaf=20.3611813
			8:leaf=18.3011799
		4:[f244<0.104148641] yes=9,no=10,missing=10
			9:[f69<-0.00400582375] yes=17,no=18,missing=18
				17:[f369<0.00234643603] yes=33,no=34,missing=34
					33:leaf=1.18090582
					34:leaf=7.62639093
				18:[f344<0.387755096] yes=35,no=36,missing=36
					35:leaf=2.31109238
					36:leaf=-0.315029919
			10:[f420<0.474358976] yes=19,no=20,missing=20
				19:[f388<0.112459064] yes=37,no=38,missing=38
					37:leaf=0.5406757
					38:leaf=5.20571327
				20:[f309<0.0346204638] yes=39,no=40,missing=40
					39:leaf=3.87656283
					40:leaf=-1.61503661
	2:[f427<0.294811308] yes=5,no=6,missing=6
		5:[f218<-0.00431613205] yes=11,no=12,missing=12
			11:[f428<0.183171526] yes=21,no=22,missing=22
				21:[f49<0.031845022] yes=41,no=42,missing=42
					41:leaf=-0.174181312
					42:leaf=0.456705332
				22:[f296<-0.00164329296] yes=43,no=44,missing=44
					43:leaf=2.74768519
					44:leaf=0.567161441
			12:[f401<-0.0065287347] yes=23,no=24,missing=24
				23:[f251<-0.00237576663] yes=45,no=46,missing=46
					45:leaf=-0.501424134
					46:leaf=0.452779591
				24:[f288<0.0295532085] yes=47,no=48,missing=48
					47:leaf=-0.10500931
					48:leaf=1.75561416
		6:[f328<0.00898985565] yes=13,no=14,missing=14
			13:[f346<0.437956214] yes=25,no=26,missing=26
				25:[f57<-0.00208719959] yes=49,no=50,missing=50
					49:leaf=0.655882955
					50:leaf=0.0732905194
				26:[f311<0.0188918523] yes=51,no=52,missing=52
					51:leaf=0.955283344
					52:leaf=-2.33089638
			14:[f57<0.00191216846] yes=27,no=28,missing=28
				27:[f337<-0.0145633947] yes=53,no=54,missing=54
					53:leaf=-6.36537933
					54:leaf=1.90880799
				28:[f245<3] yes=55,no=56,missing=56
					55:leaf=13.3716078
					56:leaf=5.34143829
booster[23]:
0:[f289<0.011167096] yes=1,no=2,missing=2
	1:[f323<0.00438935822] yes=3,no=4,missing=4
		3:[f136<0.00176071725] yes=7,no=8,missing=8
			7:[f445<0.00712465914] yes=15,no=16,missing=16
				15:[f253<0.00227074977] yes=31,no=32,missing=32
					31:leaf=0.0207773633
					32:leaf=0.328559607
				16:[f260<0.00298228883] yes=33,no=34,missing=34
					33:leaf=0.857003152
					34:leaf=-0.538251638
			8:[f344<0.546184719] yes=17,no=18,missing=18
				17:[f245<2] yes=35,no=36,missing=36
					35:leaf=0.28687045
					36:leaf=-0.159199998
				18:[f374<0.0131341536] yes=37,no=38,missing=38
					37:leaf=-0.908627391
					38:leaf=2.75573754
		4:[f49<0.0302008819] yes=9,no=10,missing=10
			9:[f287<0.00898378156] yes=19,no=20,missing=20
				19:[f324<-0.00518253632] yes=39,no=40,missing=40
					39:leaf=-0.877072155
					40:leaf=0.568791986
				20:[f254<-0.00409793714] yes=41,no=42,missing=42
					41:leaf=-8.65835762
					42:leaf=-1.97806668
			10:[f96<-0.0269253589] yes=21,no=22,missing=22
				21:[f252<0.00122998457] yes=43,no=44,missing=44
					43:leaf=10.0451241
					44:leaf=-3.46251488
				22:[f294<-0.031178249] yes=45,no=46,missing=46
					45:leaf=10.2528152
					46:leaf=-0.730700791
	2:[f254<0.00423065061] yes=5,no=6,missing=6
		5:[f241<0.0595929213] yes=11,no=12,missing=12
			11:[f49<0.0178726688] yes=23,no=24,missing=24
				23:[f241<0.0451008566] yes=47,no=48,missing=48
					47:leaf=-2.37085247
					48:leaf=3.54115868
				24:[f391<0.0193209425] yes=49,no=50,missing=50
					49:leaf=1.22821915
					50:leaf=-1.82420659
			12:[f107<0.00174491317] yes=25,no=26,missing=26
				25:[f60<-0.00284808688] yes=51,no=52,missing=52
					51:leaf=1.37193513
					52:leaf=-1.38716507
				26:[f336<-0.0106554348] yes=53,no=54,missing=54
					53:leaf=11.2756863
					54:leaf=1.75757396
		6:[f419<0.423751205] yes=13,no=14,missing=14
			13:[f312<0.0913628936] yes=27,no=28,missing=28
				27:[f49<0.0397120863] yes=55,no=56,missing=56
					55:leaf=2.32402658
					56:leaf=10.6562243
				28:[f364<-0.00276751607] yes=57,no=58,missing=58
					57:leaf=-8.15263367
					58:leaf=-0.761734843
			14:[f51<0.0499329008] yes=29,no=30,missing=30
				29:[f108<-0.00139871961] yes=59,no=60,missing=60
					59:leaf=16.7691669
					60:leaf=6.80057955
				30:[f52<0.109871678] yes=61,no=62,missing=62
					61:leaf=0.255176991
					62:leaf=8.4817152
booster[24]:
0:[f396<0.192700177] yes=1,no=2,missing=2
	1:[f83<0.0886413679] yes=3,no=4,missing=4
		3:[f45<0.10494481] yes=7,no=8,missing=8
			7:[f50<0.0452566706] yes=15,no=16,missing=16
				15:[f71<0.00158589554] yes=31,no=32,missing=32
					31:leaf=0.102067761
					32:leaf=-0.0911438689
				16:[f374<-0.00116434821] yes=33,no=34,missing=34
					33:leaf=-0.153363422
					34:leaf=0.724569917
			8:[f250<-0.00159105414] yes=17,no=18,missing=18
				17:[f269<0.175140858] yes=35,no=36,missing=36
					35:leaf=-0.50501895
					36:leaf=-2.41279078
				18:[f279<0.0711943209] yes=37,no=38,missing=38
					37:leaf=-0.288953125
					38:leaf=0.776985228
		4:[f68<-0.00496103661] yes=9,no=10,missing=10
			9:[f271<0.0712922886] yes=19,no=20,missing=20
				19:[f48<0.0525186472] yes=39,no=40,missing=40
					39:leaf=-3.19370008
					40:leaf=0.544987917
				20:[f239<0.0186472777] yes=41,no=42,missing=42
					41:leaf=-4.01894379
					42:leaf=2.11428165
			10:[f390<0.0657986552] yes=21,no=22,missing=22
				21:[f203<0.0465396866] yes=43,no=44,missing=44
					43:leaf=0.648262918
					44:leaf=-0.157007784
				22:[f355<0.057692308] yes=45,no=46,missing=46
					45:leaf=-0.70887363
					46:leaf=-0.109966449
	2:[f380<23.2666664] yes=5,no=6,missing=6
		5:[f305<0.550841689] yes=11,no=12,missing=12
			11:[f295<-0.0070548635] yes=23,no=24,missing=24
				23:[f48<0.114842035] yes=47,no=48,missing=48
					47:leaf=6.48778772
					48:leaf=-6.2055521
				24:[f185<-0.0177759472] yes=49,no=50,missing=50
					49:leaf=5.88748121
					50:leaf=-2.12089014
			12:[f61<-0.0032244157] yes=25,no=26,missing=26
				25:leaf=12.8666744
				26:[f41<0.0165306162] yes=51,no=52,missing=52
					51:leaf=-1.35437846
					52:leaf=2.75821185
		6:[f51<0.084913224] yes=13,no=14,missing=14
			13:[f342<39.7833328] yes=27,no=28,missing=28
				27:[f407<-0.00170447759] yes=53,no=54,missing=54
					53:leaf=-1.36265397
					54:leaf=-0.165460601
				28:[f282<0.165212646] yes=55,no=56,missing=56
					55:leaf=-0.413469404
					56:leaf=4.44204235
			14:[f214<0.00449938839] yes=29,no=30,missing=30
				29:[f279<0.0728059337] yes=57,no=58,missing=58
					57:leaf=2.17435789
					58:leaf=-0.829998434
				30:[f228<32.2166672] yes=59,no=60,missing=60
					59:leaf=-7.88866854
					60:leaf=2.28649235
booster[25]:
0:[f426<0.0590901375] yes=1,no=2,missing=2
	1:[f390<0.0254103635] yes=3,no=4,missing=4
		3:[f93<2] yes=7,no=8,missing=8
			7:[f7<0.0859381035] yes=15,no=16,missing=16
				15:leaf=2.60917068
				16:leaf=0.828946531
			8:[f76<23.5499992] yes=17,no=18,missing=18
				17:leaf=5.16999769
				18:leaf=11.6682472
		4:[f328<-0.00557483593] yes=9,no=10,missing=10
			9:[f62<-0.000971968635] yes=19,no=20,missing=20
				19:[f191<0.317620367] yes=31,no=32,missing=32
					31:leaf=3.8456223
					32:leaf=-1.79717863
				20:[f317<0.0413845852] yes=33,no=34,missing=34
					33:leaf=-10.8946762
					34:leaf=-5.18273306
			10:[f252<0.000882388616] yes=21,no=22,missing=22
				21:[f395<0.575347841] yes=35,no=36,missing=36
					35:leaf=-0.313915998
					36:leaf=2.18930769
				22:[f40<0.408644408] yes=37,no=38,missing=38
					37:leaf=-4.65525103
					38:leaf=-0.941252708
	2:[f427<0.073995769] yes=5,no=6,missing=6
		5:[f51<0.103370197] yes=11,no=12,missing=12
			11:[f326<-0.00499683898] yes=23,no=24,missing=24
				23:[f322<0.00226993975] yes=39,no=40,missing=40
					39:leaf=2.38124847
					40:leaf=16.6391201
				24:[f223<-0.0235514455] yes=41,no=42,missing=42
					41:leaf=10.4484997
					42:leaf=0.240552217
			12:[f388<0.120905556] yes=25,no=26,missing=26
				25:[f292<-0.000679162738] yes=43,no=44,missing=44
					43:leaf=15.3809395
					44:leaf=7.25619268
				26:[f348<0.720339] yes=45,no=46,missing=46
					45:leaf=-2.36030507
					46:leaf=3.12770629
		6:[f200<0.28296724] yes=13,no=14,missing=14
			13:[f367<0.00166684773] yes=27,no=28,missing=28
				27:[f142<-0.029756356] yes=47,no=48,missing=48
					47:leaf=-1.27467525
					48:leaf=-0.0283606146
				28:[f229<0.226372376] yes=49,no=50,missing=50
					49:leaf=-1.11965859
					50:leaf=0.236948773
			14:[f332<-0.00366359809] yes=29,no=30,missing=30
				29:[f320<0.114134125] yes=51,no=52,missing=52
					51:leaf=2.12094736
					52:leaf=11.430234
				30:[f48<0.07364887] yes=53,no=54,missing=54
					53:leaf=1.05642641
					54:leaf=-0.877051353
booster[26]:
0:[f174<0.0172464773] yes=1,no=2,missing=2
	1:[f38<48] yes=3,no=4,missing=4
		3:[f76<33.0833321] yes=7,no=8,missing=8
			7:[f77<0.492275655] yes=15,no=16,missing=16
				15:[f86<0.275910109] yes=31,no=32,missing=32
					31:leaf=0.0173374601
					32:leaf=1.2848258
				16:[f279<0.0798705071] yes=33,no=34,missing=34
					33:leaf=0.249011472
					34:leaf=1.72168183
			8:[f365<0.0125460392] yes=17,no=18,missing=18
				17:[f251<0.00215998781] yes=35,no=36,missing=36
					35:leaf=-0.000123644102
					36:leaf=-0.331919938
				18:[f44<0.647058845] yes=37,no=38,missing=38
					37:leaf=3.02063417
					38:leaf=-1.61415672
		4:[f352<0.0856155455] yes=9,no=10,missing=10
			9:[f51<0.0695044026] yes=19,no=20,missing=20
				19:[f331<0.000198308931] yes=39,no=40,missing=40
					39:leaf=2.70256066
					40:leaf=-1.57537949
				20:[f64<-0.00181412534] yes=41,no=42,missing=42
					41:leaf=10.9712791
					42:leaf=3.24871182
			10:[f243<0.261724293] yes=21,no=22,missing=22
				21:[f54<0.0451235399] yes=43,no=44,missing=44
					43:leaf=3.01702738
					44:leaf=11.8021059
				22:[f393<0.0500459522] yes=45,no=46,missing=46
					45:leaf=-2.98825264
					46:leaf=0.326471001
	2:[f347<0.129277572] yes=5,no=6,missing=6
		5:[f371<-0.00377338007] yes=11,no=12,missing=12
			11:[f310<0.869281054] yes=23,no=24,missing=24
				23:[f221<-0.000603089924] yes=47,no=48,missing=48
					47:leaf=3.31817007
					48:leaf=-1.82028246
				24:[f71<0.00163292978] yes=49,no=50,missing=50
					49:leaf=2.35888624
					50:leaf=13.6071014
			12:[f431<0.0507760532] yes=25,no=26,missing=26
				25:[f390<0.0384777561] yes=51,no=52,missing=52
					51:leaf=1.51532209
					52:leaf=-3.14796591
				26:[f357<0.216601074] yes=53,no=54,missing=54
					53:leaf=6.50206947
					54:leaf=-0.980454028
		6:[f445<-0.0115175601] yes=13,no=14,missing=14
			13:[f23<-0.00185397279] yes=27,no=28,missing=28
				27:[f0<32.4500008] yes=55,no=56,missing=56
					55:leaf=7.01252079
					56:leaf=0.542056084
				28:leaf=18.136776
			14:[f424<0.726618707] yes=29,no=30,missing=30
				29:[f290<0.00159330957] yes=57,no=58,missing=58
					57:leaf=-0.429209381
					58:leaf=-6.06524611
				30:[f238<0.0707283765] yes=59,no=60,missing=60
					59:leaf=-0.751137376
					60:leaf=3.1100378
booster[27]:
0:[f51<0.0693120807] yes=1,no=2,missing=2
	1:[f330<0.00178691826] yes=3,no=4,missing=4
		3:[f317<0.0779013261] yes=7,no=8,missing=8
			7:[f330<-0.00179925363] yes=15,no=16,missing=16
				15:[f398<-0.00919180177] yes=31,no=32,missing=32
					31:leaf=1.4137007
					32:leaf=-0.145769566
				16:[f260<0.0150872264] yes=33,no=34,missing=34
					33:leaf=0.234790221
					34:leaf=-0.93095547
			8:[f157<0.103456229] yes=17,no=18,missing=18
				17:[f47<0.105267264] yes=35,no=36,missing=36
					35:leaf=-1.03747594
					36:leaf=-0.214118525
				18:[f38<23.8833332] yes=37,no=38,missing=38
					37:leaf=-0.705254912
					38:leaf=0.343949735
		4:[f52<0.0586175695] yes=9,no=10,missing=10
			9:[f257<0.0118236486] yes=19,no=20,missing=20
				19:[f90<0.0365396626] yes=39,no=40,missing=40
					39:leaf=16.2047977
					40:leaf=0.351718694
				20:[f396<-0.0063343565] yes=41,no=42,missing=42
					41:leaf=3.25049305
					42:leaf=19.4748287
			10:[f447<0.00388563192] yes=21,no=22,missing=22
				21:[f51<0.0390253179] yes=43,no=44,missing=44
					43:leaf=-0.804258764
					44:leaf=-0.0580540746
				22:[f315<0.0268632378] yes=45,no=46,missing=46
					45:leaf=-0.110993199
					46:leaf=-2.21056819
	2:[f403<1.87098922e-05] yes=5,no=6,missing=6
		5:[f309<0.0432845652] yes=11,no=12,missing=12
			11:[f352<0.0444444455] yes=23,no=24,missing=24
				23:[f82<0.446902663] yes=47,no=48,missing=48
					47:leaf=8.88746262
					48:leaf=-2.96722341
				24:[f248<0.00103667949] yes=49,no=50,missing=50
					49:leaf=-1.19345713
					50:leaf=0.756287694
			12:[f306<0.363636374] yes=25,no=26,missing=26
				25:[f81<0.0601507872] yes=51,no=52,missing=52
					51:leaf=5.90356779
					52:leaf=0.972761154
				26:[f402<-0.00236314186] yes=53,no=54,missing=54
					53:leaf=0.149699315
					54:leaf=-0.362914026
		6:[f442<0.00337525783] yes=13,no=14,missing=14
			13:[f256<0.00598701369] yes=27,no=28,missing=28
				27:[f330<0.00108668825] yes=55,no=56,missing=56
					55:leaf=-0.17746006
					56:leaf=0.406253517
				28:[f289<0.00190287572] yes=57,no=58,missing=58
					57:leaf=0.770043135
					58:leaf=3.7577529
			14:[f388<0.0763175264] yes=29,no=30,missing=30
				29:[f323<0.00414852332] yes=59,no=60,missing=60
					59:leaf=-1.14712393
					60:leaf=-8.65963364
				30:[f335<-0.0019336585] yes=61,no=62,missing=62
					61:leaf=3.94607759
					62:leaf=0.863071799
booster[28]:
0:[f326<0.00571925892] yes=1,no=2,missing=2
	1:[f398<-0.0210975744] yes=3,no=4,missing=4
		3:[f327<0.00371510303] yes=7,no=8,missing=8
			7:[f309<0.0746497735] yes=15,no=16,missing=16
				15:[f285<0.000456220616] yes=31,no=32,missing=32
					31:leaf=-0.163848549
					32:leaf=3.927526
				16:[f365<-0.00208081631] yes=33,no=34,missing=34
					33:leaf=-3.75482416
					34:leaf=-0.596637845
			8:[f250<-0.00407061027] yes=17,no=18,missing=18
				17:[f68<-0.000221891256] yes=35,no=36,missing=36
					35:leaf=-4.18543053
					36:leaf=4.82707024
				18:[f249<-0.00294629647] yes=37,no=38,missing=38
					37:leaf=-3.21419215
					38:leaf=-8.08404064
		4:[f44<0.454545468] yes=9,no=10,missing=10
			9:[f64<-0.00043328575] yes=19,no=20,missing=20
				19:[f422<0.341463417] yes=39,no=40,missing=40
					39:leaf=1.66697896
					40:leaf=-1.06158817
				20:[f406<0.000279812812] yes=41,no=42,missing=42
					41:leaf=-2.6500423
					42:leaf=-0.20709376
			10:[f120<0.588235319] yes=21,no=22,missing=22
				21:[f362<-0.00493207481] yes=43,no=44,missing=44
					43:leaf=-0.933974802
					44:leaf=0.356456637
				22:[f314<0.0433855169] yes=45,no=46,missing=46
					45:leaf=-0.190099865
					46:leaf=0.0116586229
	2:[f385<0.0949344337] yes=5,no=6,missing=6
		5:[f48<0.0221647583] yes=11,no=12,missing=12
			11:[f358<-0.0480821021] yes=23,no=24,missing=24
				23:[f49<0.0218351968] yes=47,no=48,missing=48
					47:leaf=-0
					48:leaf=-3.65690422
				24:[f365<-0.00160310778] yes=49,no=50,missing=50
					49:leaf=-11.2495785
					50:leaf=-6.54458666
			12:[f257<-0.000609814713] yes=25,no=26,missing=26
				25:[f304<38.6333351] yes=51,no=52,missing=52
					51:leaf=-0.903312683
					52:leaf=2.93534756
				26:[f327<-0.00222500204] yes=53,no=54,missing=54
					53:leaf=1.52641881
					54:leaf=-0.128328368
		6:[f352<0.0618263409] yes=13,no=14,missing=14
			13:[f65<0.00127725245] yes=27,no=28,missing=28
				27:[f347<0.0980862379] yes=55,no=56,missing=56
					55:leaf=-0.118765943
					56:leaf=1.96463656
				28:[f271<0.133525059] yes=57,no=58,missing=58
					57:leaf=1.62813067
					58:leaf=6.13873625
			14:[f290<0.00217960752] yes=29,no=30,missing=30
				29:[f282<0.253030151] yes=59,no=60,missing=60
					59:leaf=-0.0973662063
					60:leaf=10.2119188
				30:[f384<0.398865789] yes=61,no=62,missing=62
					61:leaf=1.98264885
					62:leaf=18.0111752
booster[29]:
0:[f251<-0.00386163034] yes=1,no=2,missing=2
	1:[f53<0.335536361] yes=3,no=4,missing=4
		3:[f299<-0.00375591195] yes=7,no=8,missing=8
			7:[f390<0.147391662] yes=15,no=16,missing=16
				15:[f308<0.462686568] yes=31,no=32,missing=32
					31:leaf=1.23711491
					32:leaf=17.6723804
				16:[f266<29.75] yes=33,no=34,missing=34
					33:leaf=-4.05387068
					34:leaf=1.12342799
			8:[f388<0.179140374] yes=17,no=18,missing=18
				17:[f332<0.00720355101] yes=35,no=36,missing=36
					35:leaf=-0.450948328
					36:leaf=-3.40635562
				18:[f324<-0.00708781835] yes=37,no=38,missing=38
					37:leaf=4.86016035
					38:leaf=-2.50158334
		4:[f43<0.0791970789] yes=9,no=10,missing=10
			9:[f392<0.0084360214] yes=19,no=20,missing=20
				19:[f383<0.0831440762] yes=39,no=40,missing=40
					39:leaf=3.95663309
					40:leaf=1.10180926
				20:[f405<-3.71361057e-05] yes=41,no=42,missing=42
					41:leaf=0.634713829
					42:leaf=-0.822314799
			10:[f275<0.199613884] yes=21,no=22,missing=22
				21:[f371<-0.00261643296] yes=43,no=44,missing=44
					43:leaf=-1.23855019
					44:leaf=-0.289626986
				22:[f82<0.588744581] yes=45,no=46,missing=46
					45:leaf=-1.89181077
					46:leaf=0.425481945
	2:[f367<0.000187974598] yes=5,no=6,missing=6
		5:[f64<-0.00106757239] yes=11,no=12,missing=12
			11:[f448<0.0228223111] yes=23,no=24,missing=24
				23:[f352<0.21377942] yes=47,no=48,missing=48
					47:leaf=-0.165030316
					48:leaf=0.836031556
				24:[f266<36.0166664] yes=49,no=50,missing=50
					49:leaf=-2.32304978
					50:leaf=-8.29717827
			12:[f388<0.229409203] yes=25,no=26,missing=26
				25:[f433<0.600866795] yes=51,no=52,missing=52
					51:leaf=0.196582004
					52:leaf=-0.276090056
				26:[f228<46.6166649] yes=53,no=54,missing=54
					53:leaf=0.683181584
					54:leaf=9.7361412
		6:[f163<0.0335109606] yes=13,no=14,missing=14
			13:[f418<38.7833328] yes=27,no=28,missing=28
				27:[f336<0.00295133726] yes=55,no=56,missing=56
					55:leaf=-0.325694323
					56:leaf=0.173903421
				28:[f404<-0.0170634687] yes=57,no=58,missing=58
					57:leaf=8.13260555
					58:leaf=0.254784942
			14:[f64<0.000448859268] yes=29,no=30,missing=30
				29:[f196<0.680769205] yes=59,no=60,missing=60
					59:leaf=-0.299759477
					60:leaf=0.348358214
				30:[f363<0.0122651858] yes=61,no=62,missing=62
					61:leaf=-0.248582765
					62:leaf=1.93174088
booster[30]:
0:[f62<-0.000182616001] yes=1,no=2,missing=2
	1:[f90<0.0781419575] yes=3,no=4,missing=4
		3:[f405<-0.000726166181] yes=7,no=8,missing=8
			7:[f353<0.0537710488] yes=15,no=16,missing=16
				15:[f411<0.00230190926] yes=31,no=32,missing=32
					31:leaf=-0.210379243
					32:leaf=0.61132586
				16:[f82<0.745257437] yes=33,no=34,missing=34
					33:leaf=4.03381014
					34:leaf=0.502206564
			8:[f445<0.003659965] yes=17,no=18,missing=18
				17:[f230<0.410858989] yes=35,no=36,missing=36
					35:leaf=-0.855134785
					36:leaf=-0.158748239
				18:[f48<0.0235017631] yes=37,no=38,missing=38
					37:leaf=-6.92420864
					38:leaf=-0.944907606
		4:[f405<-0.00188322377] yes=9,no=10,missing=10
			9:[f249<0.00441736169] yes=19,no=20,missing=20
				19:[f349<0.00696898811] yes=39,no=40,missing=40
					39:leaf=4.53872299
					40:leaf=-0.221119985
				20:[f356<0.140926957] yes=41,no=42,missing=42
					41:leaf=-1.82202613
					42:leaf=10.1886139
			10:[f407<-0.00993236527] yes=21,no=22,missing=22
				21:[f356<0.0576117001] yes=43,no=44,missing=44
					43:leaf=5.21423817
					44:leaf=0.818641186
				22:[f306<0.482812494] yes=45,no=46,missing=46
					45:leaf=0.179489493
					46:leaf=-0.196648374
	2:[f320<0.136822909] yes=5,no=6,missing=6
		5:[f319<0.653679132] yes=11,no=12,missing=12
			11:[f41<0.254559875] yes=23,no=24,missing=24
				23:[f374<0.000484589167] yes=47,no=48,missing=48
					47:leaf=0.0717353523
					48:leaf=-0.161761329
				24:[f428<0.0376449823] yes=49,no=50,missing=50
					49:leaf=5.6224103
					50:leaf=0.622527063
			12:[f317<0.0662936792] yes=25,no=26,missing=26
				25:[f244<-0.111586988] yes=51,no=52,missing=52
					51:leaf=5.06431818
					52:leaf=0.982295156
				26:[f39<0.286437213] yes=53,no=54,missing=54
					53:leaf=1.50341618
					54:leaf=-0.127542526
		6:[f239<0.0314919315] yes=13,no=14,missing=14
			13:[f443<0.0129827475] yes=27,no=28,missing=28
				27:[f353<0.0304401554] yes=55,no=56,missing=56
					55:leaf=1.18808889
					56:leaf=0.228496268
				28:[f172<-0.000455356028] yes=57,no=58,missing=58
					57:leaf=2.5547545
					58:leaf=14.0327158
			14:[f344<0.626609445] yes=29,no=30,missing=30
				29:[f451<0.00246205553] yes=59,no=60,missing=60
					59:leaf=-0.391626269
					60:leaf=0.81289345
				30:[f273<0.0133083183] yes=61,no=62,missing=62
					61:leaf=14.9553852
					62:leaf=2.43977189
booster[31]:
0:[f371<-0.00781151047] yes=1,no=2,missing=2
	1:[f427<0.145259857] yes=3,no=4,missing=4
		3:[f52<0.113140404] yes=7,no=8,missing=8
			7:[f292<-0.000679162738] yes=15,no=16,missing=16
				15:[f319<0.761996388] yes=31,no=32,missing=32
					31:leaf=0.0707283989
					32:leaf=9.6371212
				16:[f233<0.0625108555] yes=33,no=34,missing=34
					33:leaf=0.696758449
					34:leaf=-2.07794976
			8:[f357<0.522070825] yes=17,no=18,missing=18
				17:[f45<0.0125603341] yes=35,no=36,missing=36
					35:leaf=13.8688307
					36:leaf=0.649664998
				18:[f253<0.000622733554] yes=37,no=38,missing=38
					37:leaf=3.71935058
					38:leaf=13.5222387
		4:[f380<31.833334] yes=9,no=10,missing=10
			9:[f60<0.000528045348] yes=19,no=20,missing=20
				19:[f64<-0.00711660506] yes=39,no=40,missing=40
					39:leaf=11.7927647
					40:leaf=-0.816628397
				20:[f240<0.0503336526] yes=41,no=42,missing=42
					41:leaf=1.75448465
					42:leaf=-5.08880043
			10:[f44<0.769230783] yes=21,no=22,missing=22
				21:[f380<34.5] yes=43,no=44,missing=44
					43:leaf=5.15029526
					44:leaf=1.77842867
				22:[f391<0.0389518812] yes=45,no=46,missing=46
					45:leaf=1.39786232
					46:leaf=-1.05369651
	2:[f311<0.0963683873] yes=5,no=6,missing=6
		5:[f44<0.897233188] yes=11,no=12,missing=12
			11:[f280<0.0524348766] yes=23,no=24,missing=24
				23:[f396<0.0174442753] yes=47,no=48,missing=48
					47:leaf=-0.838075638
					48:leaf=0.14615874
				24:[f324<-0.00472575705] yes=49,no=50,missing=50
					49:leaf=0.316913486
					50:leaf=-0.0222478043
			12:[f384<0.25] yes=25,no=26,missing=26
				25:[f232<0.273809522] yes=51,no=52,missing=52
					51:leaf=2.89615726
					52:leaf=-0.15503116
				26:[f373<0.00102382479] yes=53,no=54,missing=54
					53:leaf=-1.10447443
					54:leaf=0.18320027
		6:[f43<0.0513188243] yes=13,no=14,missing=14
			13:[f315<0.0089168027] yes=27,no=28,missing=28
				27:[f208<-0.000566728821] yes=55,no=56,missing=56
					55:leaf=15.481842
					56:leaf=0.497144103
				28:[f434<0.108690217] yes=57,no=58,missing=58
					57:leaf=-0.274267763
					58:leaf=-2.29096365
			14:[f49<0.00994547736] yes=29,no=30,missing=30
				29:[f383<0.0209015254] yes=59,no=60,missing=60
					59:leaf=16.2197914
					60:leaf=3.09722877
				30:[f203<0.0229860935] yes=61,no=62,missing=62
					61:leaf=3.66658473
					62:leaf=0.269052714
booster[32]:
0:[f280<0.0669548288] yes=1,no=2,missing=2
	1:[f424<0.717171729] yes=3,no=4,missing=4
		3:[f258<0.000643126376] yes=7,no=8,missing=8
			7:[f411<-0.00602681283] yes=15,no=16,missing=16
				15:[f219<0.000237372456] yes=31,no=32,missing=32
					31:leaf=-0.642688215
					32:leaf=-5.43736267
				16:[f322<-0.00640246132] yes=33,no=34,missing=34
					33:leaf=1.23143816
					34:leaf=-0.511302769
			8:[f287<0.000378571218] yes=17,no=18,missing=18
				17:[f405<-0.00204741769] yes=35,no=36,missing=36
					35:leaf=2.5128119
					36:leaf=0.379690528
				18:[f408<0.0035703138] yes=37,no=38,missing=38
					37:leaf=-0.178128794
					38:leaf=-3.24654865
		4:[f63<0.000368601817] yes=9,no=10,missing=10
			9:[f274<0.289663017] yes=19,no=20,missing=20
				19:[f130<0.146058291] yes=39,no=40,missing=40
					39:leaf=0.188490927
					40:leaf=-0.62225759
				20:[f328<0.000581141561] yes=41,no=42,missing=42
					41:leaf=-0.514265716
					42:leaf=-5.33388567
			10:[f289<0.00150005892] yes=21,no=22,missing=22
				21:[f63<0.000538710621] yes=43,no=44,missing=44
					43:leaf=1.39815152
					44:leaf=0.177199334
				22:[f314<0.0819892138] yes=45,no=46,missing=46
					45:leaf=0.472129464
					46:leaf=2.21353984
	2:[f324<0.00196312647] yes=5,no=6,missing=6
		5:[f368<0.00230557681] yes=11,no=12,missing=12
			11:[f434<-0.0158334393] yes=23,no=24,missing=24
				23:[f57<0.000826134521] yes=47,no=48,missing=48
					47:leaf=-0.297736645
					48:leaf=0.121785514
				24:[f269<0.00048803899] yes=49,no=50,missing=50
					49:leaf=0.520744383
					50:leaf=0.00353771751
			12:[f285<-0.00537010049] yes=25,no=26,missing=26
				25:[f381<0.302221209] yes=51,no=52,missing=52
					51:leaf=0.295811594
					52:leaf=-2.45628691
				26:[f278<0.0547883585] yes=53,no=54,missing=54
					53:leaf=-0.175652504
					54:leaf=-1.73378217
		6:[f438<-0.00387566979] yes=13,no=14,missing=14
			13:[f410<-0.000989557011] yes=27,no=28,missing=28
				27:[f385<0.142283559] yes=55,no=56,missing=56
					55:leaf=-2.58383083
					56:leaf=1.18466282
				28:[f297<0.00561228581] yes=57,no=58,missing=58
					57:leaf=-0.325664043
					58:leaf=4.15157509
			14:[f380<39.25] yes=29,no=30,missing=30
				29:[f231<0.0471225642] yes=59,no=60,missing=60
					59:leaf=-0.122761793
					60:leaf=0.498132378
				30:[f247<-0.00608609011] yes=61,no=62,missing=62
					61:leaf=2.9770534
					62:leaf=-0.654850185
booster[33]:
0:[f331<-0.00219366816] yes=1,no=2,missing=2
	1:[f70<0.0120765781] yes=3,no=4,missing=4
		3:[f401<-0.00304283085] yes=7,no=8,missing=8
			7:[f427<0.430000871] yes=15,no=16,missing=16
				15:[f231<0.00655451184] yes=29,no=30,missing=30
					29:leaf=-1.58912027
					30:leaf=-0.422021419
				16:[f298<-0.00284937094] yes=31,no=32,missing=32
					31:leaf=9.69499969
					32:leaf=1.56833422
			8:[f203<0.129544482] yes=17,no=18,missing=18
				17:[f329<-0.00657836301] yes=33,no=34,missing=34
					33:leaf=1.0103507
					34:leaf=-0.105044745
				18:[f399<0.00180374505] yes=35,no=36,missing=36
					35:leaf=1.34199071
					36:leaf=9.8847065
		4:[f364<-0.029233329] yes=9,no=10,missing=10
			9:leaf=22.0592079
			10:[f354<0.0563918762] yes=19,no=20,missing=20
				19:[f391<0.0225021336] yes=37,no=38,missing=38
					37:leaf=3.10671473
					38:leaf=0.12084423
				20:[f439<0.00045980094] yes=39,no=40,missing=40
					39:leaf=-0.133718222
					40:leaf=10.3724842
	2:[f278<0.000722199795] yes=5,no=6,missing=6
		5:[f383<0.176462859] yes=11,no=12,missing=12
			11:[f237<0.0972460657] yes=21,no=22,missing=22
				21:[f375<0.000797204266] yes=41,no=42,missing=42
					41:leaf=-4.10972691
					42:leaf=3.48153639
				22:[f65<-0.0174518842] yes=43,no=44,missing=44
					43:leaf=-9.26256657
					44:leaf=1.69263077
			12:[f398<-0.000566728821] yes=23,no=24,missing=24
				23:[f63<-0.00022381256] yes=45,no=46,missing=46
					45:leaf=-7.73058558
					46:leaf=-2.92323422
				24:[f106<0.00402176287] yes=47,no=48,missing=48
					47:leaf=-0.867824733
					48:leaf=9.32512474
		6:[f394<0.0731751472] yes=13,no=14,missing=14
			13:[f444<0.00255138264] yes=25,no=26,missing=26
				25:[f99<-0.029103782] yes=49,no=50,missing=50
					49:leaf=2.96050906
					50:leaf=0.0722781569
				26:[f293<-0.00395003892] yes=51,no=52,missing=52
					51:leaf=-0.969075263
					52:leaf=0.830148101
			14:[f40<0.422077924] yes=27,no=28,missing=28
				27:[f398<-0.00294287433] yes=53,no=54,missing=54
					53:leaf=-0.682580173
					54:leaf=-0.106942229
				28:[f345<0.310723752] yes=55,no=56,missing=56
					55:leaf=0.0318081863
					56:leaf=3.01613545
booster[34]:
0:[f336<0.00356517732] yes=1,no=2,missing=2
	1:[f396<0.109658375] yes=3,no=4,missing=4
		3:[f267<0.454855055] yes=7,no=8,missing=8
			7:[f374<-0.000364880572] yes=15,no=16,missing=16
				15:[f310<0.775743723] yes=31,no=32,missing=32
					31:leaf=-0.262735993
					32:leaf=0.0891185626
				16:[f407<-0.0085195154] yes=33,no=34,missing=34
					33:leaf=-0.720406055
					34:leaf=0.175088346
			8:[f389<0.0807544068] yes=17,no=18,missing=18
				17:[f448<-0.00746689318] yes=35,no=36,missing=36
					35:leaf=-7.59861135
					36:leaf=-0.77915746
				18:[f421<0.245737985] yes=37,no=38,missing=38
					37:leaf=0.397880346
					38:leaf=-1.69760478
		4:[f291<-0.00578025682] yes=9,no=10,missing=10
			9:[f319<0.220961526] yes=19,no=20,missing=20
				19:[f38<31.5166664] yes=39,no=40,missing=40
					39:leaf=3.50554681
					40:leaf=14.126133
				20:[f255<5.42322887e-05] yes=41,no=42,missing=42
					41:leaf=0.0083806701
					42:leaf=2.57968211
			10:[f228<23.9833336] yes=21,no=22,missing=22
				21:[f280<0.0831523612] yes=43,no=44,missing=44
					43:leaf=-0.225870326
					44:leaf=0.960469365
				22:[f251<0.00310014118] yes=45,no=46,missing=46
					45:leaf=-0.201001778
					46:leaf=-1.00954342
	2:[f200<0.0292323735] yes=5,no=6,missing=6
		5:[f426<0.224526033] yes=11,no=12,missing=12
			11:[f215<-0.00976313557] yes=23,no=24,missing=24
				23:[f64<-0.000508987578] yes=47,no=48,missing=48
					47:leaf=4.33481312
					48:leaf=18.9258537
				24:[f310<0.868085086] yes=49,no=50,missing=50
					49:leaf=0.550210357
					50:leaf=3.83023381
			12:[f348<0.73780489] yes=25,no=26,missing=26
				25:[f48<0.0626612231] yes=51,no=52,missing=52
					51:leaf=7.69807625
					52:leaf=-1.42375827
				26:[f38<27.0333328] yes=53,no=54,missing=54
					53:leaf=-0.829524577
					54:leaf=-7.06151772
		6:[f451<-0.000616578036] yes=13,no=14,missing=14
			13:[f44<0.81300813] yes=27,no=28,missing=28
				27:[f64<0.00023466695] yes=55,no=56,missing=56
					55:leaf=-0.414477021
					56:leaf=-1.22539079
				28:[f304<40.9000015] yes=57,no=58,missing=58
					57:leaf=-0.128123671
					58:leaf=3.16200638
			14:[f352<0.156114489] yes=29,no=30,missing=30
				29:[f397<1] yes=59,no=60,missing=60
					59:leaf=1.33912063
					60:leaf=0.0214531757
				30:[f49<0.0371364988] yes=61,no=62,missing=62
					61:leaf=-1.19417894
					62:leaf=0.682120562
booster[35]:
0:[f298<-0.00922103226] yes=1,no=2,missing=2
	1:[f309<0.0408704504] yes=3,no=4,missing=4
		3:[f57<-0.00210574595] yes=7,no=8,missing=8
			7:[f440<-0.00417943625] yes=15,no=16,missing=16
				15:[f438<0.00173517212] yes=31,no=32,missing=32
					31:leaf=4.9391098
					32:leaf=14.0431995
				16:[f255<-0.00341819902] yes=33,no=34,missing=34
					33:leaf=7.32824373
					34:leaf=0.48514536
			8:[f55<6] yes=17,no=18,missing=18
				17:[f413<-0.00217065029] yes=35,no=36,missing=36
					35:leaf=-1.88155174
					36:leaf=0.796838045
				18:[f440<-0.00122296077] yes=37,no=38,missing=38
					37:leaf=-0.386747271
					38:leaf=4.22782087
		4:[f446<0.00237443484] yes=9,no=10,missing=10
			9:[f48<0.0235017631] yes=19,no=20,missing=20
				19:[f385<0.143064991] yes=39,no=40,missing=40
					39:leaf=-5.46156216
					40:leaf=4.12377977
				20:[f342<43.0499992] yes=41,no=42,missing=42
					41:leaf=0.0278617311
					42:leaf=-3.01149559
			10:[f333<0.000820048677] yes=21,no=22,missing=22
				21:[f270<0.353448272] yes=43,no=44,missing=44
					43:leaf=0.763203859
					44:leaf=3.54545593
				22:[f445<0.0011193516] yes=45,no=46,missing=46
					45:leaf=0.380980819
					46:leaf=-3.42685175
	2:[f407<-0.00331836636] yes=5,no=6,missing=6
		5:[f51<0.0475596711] yes=11,no=12,missing=12
			11:[f260<-0.00745357946] yes=23,no=24,missing=24
				23:[f46<0.22405456] yes=47,no=48,missing=48
					47:leaf=2.14730954
					48:leaf=10.0200834
				24:[f244<-0.0967850983] yes=49,no=50,missing=50
					49:leaf=-0.75063014
					50:leaf=0.571711779
			12:[f434<-0.0643747002] yes=25,no=26,missing=26
				25:[f330<0.00268188328] yes=51,no=52,missing=52
					51:leaf=0.252544701
					52:leaf=1.92419803
				26:[f45<0.136772275] yes=53,no=54,missing=54
					53:leaf=-0.248438463
					54:leaf=3.68724704
		6:[f59<0.00127029372] yes=13,no=14,missing=14
			13:[f289<-0.0299055278] yes=27,no=28,missing=28
				27:[f363<-0.00124944095] yes=55,no=56,missing=56
					55:leaf=-0.778832316
					56:leaf=3.68993402
				28:[f310<0.823008835] yes=57,no=58,missing=58
					57:leaf=-0.0286410246
					58:leaf=-0.237893656
			14:[f284<0.0117524005] yes=29,no=30,missing=30
				29:[f409<0.00368737266] yes=59,no=60,missing=60
					59:leaf=0.155725613
					60:leaf=-0.511629403
				30:[f57<-0.00261183036] yes=61,no=62,missing=62
					61:leaf=-4.22773695
					62:leaf=-0.920501351
booster[36]:
0:[f50<0.0130298818] yes=1,no=2,missing=2
	1:[f41<0.0779766738] yes=3,no=4,missing=4
		3:[f362<0.00268618693] yes=7,no=8,missing=8
			7:[f230<0.438679248] yes=15,no=16,missing=16
				15:[f299<-0.000543437316] yes=31,no=32,missing=32
					31:leaf=1.14533412
					32:leaf=0.110472016
				16:[f322<-0.000937097182] yes=33,no=34,missing=34
					33:leaf=0.438090086
					34:leaf=-0.447232693
			8:[f387<0.13210544] yes=17,no=18,missing=18
				17:[f373<-0.00142998225] yes=35,no=36,missing=36
					35:leaf=2.03937316
					36:leaf=0.239284769
				18:[f56<0.00154013932] yes=37,no=38,missing=38
					37:leaf=14.0438166
					38:leaf=1.03037059
		4:[f385<0.0983645916] yes=9,no=10,missing=10
			9:[f279<0.105424687] yes=19,no=20,missing=20
				19:[f385<0.0309695862] yes=39,no=40,missing=40
					39:leaf=0.566339254
					40:leaf=-0.126353949
				20:[f232<0.407407403] yes=41,no=42,missing=42
					41:leaf=-1.56246519
					42:leaf=4.59409285
			10:[f267<0.235198379] yes=21,no=22,missing=22
				21:[f64<-0.00292875897] yes=43,no=44,missing=44
					43:leaf=-2.1377244
					44:leaf=-0.267873943
				22:[f199<0.370423496] yes=45,no=46,missing=46
					45:leaf=0.175929353
					46:leaf=1.29936409
	2:[f258<0.00325273303] yes=5,no=6,missing=6
		5:[f369<-0.00399308652] yes=11,no=12,missing=12
			11:[f250<0.00373395206] yes=23,no=24,missing=24
				23:[f252<0.00523091992] yes=47,no=48,missing=48
					47:leaf=0.403709441
					48:leaf=3.050529
				24:[f385<0.0284025762] yes=49,no=50,missing=50
					49:leaf=-9.15733719
					50:leaf=-0.876058757
			12:[f434<-0.0214518402] yes=25,no=26,missing=26
				25:[f68<0.0219451841] yes=51,no=52,missing=52
					51:leaf=-0.262190133
					52:leaf=2.33176351
				26:[f71<-0.00784227811] yes=53,no=54,missing=54
					53:leaf=0.704363346
					54:leaf=0.0146530513
		6:[f43<0.0342396796] yes=13,no=14,missing=14
			13:[f255<-0.00264114351] yes=27,no=28,missing=28
				27:[f365<0.00107982242] yes=55,no=56,missing=56
					55:leaf=-6.30920315
					56:leaf=-0
				28:[f367<0.00271893037] yes=57,no=58,missing=58
					57:leaf=-1.73044252
					58:leaf=5.48186493
			14:[f446<0.00119139941] yes=29,no=30,missing=30
				29:[f394<0.141910136] yes=59,no=60,missing=60
					59:leaf=0.00128352002
					60:leaf=-2.46241498
				30:[f328<-0.000391119218] yes=61,no=62,missing=62
					61:leaf=-0.166825265
					62:leaf=-1.27067327
booster[37]:
0:[f394<0.132883355] yes=1,no=2,missing=2
	1:[f382<0.459743291] yes=3,no=4,missing=4
		3:[f51<0.110603936] yes=7,no=8,missing=8
			7:[f63<0.00112995936] yes=15,no=16,missing=16
				15:[f451<-0.0391274206] yes=31,no=32,missing=32
					31:leaf=-1.71259785
					32:leaf=0.0867998898
				16:[f362<-0.00493207481] yes=33,no=34,missing=34
					33:leaf=1.00602853
					34:leaf=-0.252543896
			8:[f233<0.170685261] yes=17,no=18,missing=18
				17:[f295<-0.00013903527] yes=35,no=36,missing=36
					35:leaf=1.54047227
					36:leaf=-0.518825412
				18:[f50<0.039378237] yes=37,no=38,missing=38
					37:leaf=3.48698258
					38:leaf=12.4716253
		4:[f53<0.362714231] yes=9,no=10,missing=10
			9:[f345<0.135914326] yes=19,no=20,missing=20
				19:[f334<-0.00438413769] yes=39,no=40,missing=40
					39:leaf=-1.02174592
					40:leaf=0.453831464
				20:[f82<0.920560777] yes=41,no=42,missing=42
					41:leaf=-0.303057432
					42:leaf=4.25183105
			10:[f310<0.762004197] yes=21,no=22,missing=22
				21:[f57<-0.001021915] yes=43,no=44,missing=44
					43:leaf=-0.149137065
					44:leaf=-0.622567534
				22:[f343<0.244214445] yes=45,no=46,missing=46
					45:leaf=-0.706152737
					46:leaf=0.0256032422
	2:[f294<-0.000377199467] yes=5,no=6,missing=6
		5:[f67<-0.00325276004] yes=11,no=12,missing=12
			11:[f95<0.00422097603] yes=23,no=24,missing=24
				23:[f327<0.000824808259] yes=47,no=48,missing=48
					47:leaf=-0.0345398113
					48:leaf=-2.9141283
				24:[f42<0.371794879] yes=49,no=50,missing=50
					49:leaf=1.44998133
					50:leaf=15.3230629
			12:[f206<-0.0983021408] yes=25,no=26,missing=26
				25:[f373<0.000505119853] yes=51,no=52,missing=52
					51:leaf=1.15725994
					52:leaf=4.23974991
				26:[f43<0.108589344] yes=53,no=54,missing=54
					53:leaf=1.14893568
					54:leaf=-0.00204758276
		6:[f259<0.00580188399] yes=13,no=14,missing=14
			13:[f247<0.00312607549] yes=27,no=28,missing=28
				27:[f51<0.0256137252] yes=55,no=56,missing=56
					55:leaf=-2.90306211
					56:leaf=0.0606721602
				28:[f364<-0.00221893378] yes=57,no=58,missing=58
					57:leaf=-4.7555294
					58:leaf=-1.06416619
			14:[f304<43.3666649] yes=29,no=30,missing=30
				29:[f312<0.164341718] yes=59,no=60,missing=60
					59:leaf=2.7190671
					60:leaf=-3.86405492
				30:[f4<0.34375] yes=61,no=62,missing=62
					61:leaf=18.2285938
					62:leaf=4.01459026
booster[38]:
0:[f304<25.7999992] yes=1,no=2,missing=2
	1:[f176<0.000150564345] yes=3,no=4,missing=4
		3:[f419<0.607177794] yes=7,no=8,missing=8
			7:[f256<0.000174920453] yes=15,no=16,missing=16
				15:[f247<0.00398892071] yes=31,no=32,missing=32
					31:leaf=-0.133935019
					32:leaf=-1.22818339
				16:[f252<-0.0033269925] yes=33,no=34,missing=34
					33:leaf=-0.791161835
					34:leaf=0.308296919
			8:[f348<0.681395352] yes=17,no=18,missing=18
				17:[f67<0.00136119477] yes=35,no=36,missing=36
					35:leaf=-0.730950534
					36:leaf=5.31375027
				18:[f196<0.632352948] yes=37,no=38,missing=38
					37:leaf=1.17967343
					38:leaf=-3.31462097
		4:[f374<-0.00959423464] yes=9,no=10,missing=10
			9:[f171<0.00681647472] yes=19,no=20,missing=20
				19:[f365<-0.0026262023] yes=39,no=40,missing=40
					39:leaf=0.741026044
					40:leaf=-2.11968756
				20:[f242<0.0721400976] yes=41,no=42,missing=42
					41:leaf=1.19237769
					42:leaf=9.98123455
			10:[f222<0.00643038284] yes=21,no=22,missing=22
				21:[f231<0.195304468] yes=43,no=44,missing=44
					43:leaf=0.354116619
					44:leaf=-0.480487347
				22:[f132<-0.0257709119] yes=45,no=46,missing=46
					45:leaf=13.7874136
					46:leaf=1.12880683
	2:[f92<-0.279448688] yes=5,no=6,missing=6
		5:[f306<0.42291373] yes=11,no=12,missing=12
			11:[f309<0.0373560227] yes=23,no=24,missing=24
				23:[f64<0.000168126004] yes=47,no=48,missing=48
					47:leaf=1.38412166
					48:leaf=14.0628242
				24:[f400<0.000180495277] yes=49,no=50,missing=50
					49:leaf=1.90938675
					50:leaf=-1.7308892
			12:[f372<-0.00445061876] yes=25,no=26,missing=26
				25:[f266<32.7999992] yes=51,no=52,missing=52
					51:leaf=0.34333998
					52:leaf=13.7334976
				26:[f393<0.0505310707] yes=53,no=54,missing=54
					53:leaf=-0.707164824
					54:leaf=-3.18111277
		6:[f296<-0.00460992893] yes=13,no=14,missing=14
			13:[f287<0.000136549716] yes=27,no=28,missing=28
				27:[f398<0.0025498562] yes=55,no=56,missing=56
					55:leaf=-0.508945465
					56:leaf=-2.09190035
				28:[f426<0.0866546184] yes=57,no=58,missing=58
					57:leaf=1.49117339
					58:leaf=-0.263620257
			14:[f299<-0.000452031149] yes=29,no=30,missing=30
				29:[f38<38.5999985] yes=59,no=60,missing=60
					59:leaf=-0.172803849
					60:leaf=0.298593789
				30:[f342<28.2000008] yes=61,no=62,missing=62
					61:leaf=-0.108755007
					62:leaf=0.168730766
booster[39]:
0:[f425<0.126006842] yes=1,no=2,missing=2
	1:[f206<0.202298135] yes=3,no=4,missing=4
		3:[f118<0.246376812] yes=7,no=8,missing=8
			7:[f99<0.0269550886] yes=15,no=16,missing=16
				15:[f77<0.1609741] yes=31,no=32,missing=32
					31:leaf=-1.83574128
					32:leaf=-0.120622002
				16:[f91<0.307284534] yes=33,no=34,missing=34
					33:leaf=7.71469641
					34:leaf=0.915910959
			8:[f342<18.6333332] yes=17,no=18,missing=18
				17:[f309<0.0621956699] yes=35,no=36,missing=36
					35:leaf=1.00817072
					36:leaf=-0.963701487
				18:[f44<0.927125514] yes=37,no=38,missing=38
					37:leaf=0.0343740769
					38:leaf=1.14994204
		4:[f43<0.0265229996] yes=9,no=10,missing=10
			9:[f431<0.0313824825] yes=19,no=20,missing=20
				19:leaf=12.3098412
				20:[f350<0.2074074] yes=39,no=40,missing=40
					39:leaf=3.86474609
					40:leaf=-1.61187923
			10:[f394<0.0345257819] yes=21,no=22,missing=22
				21:[f41<0.0353259817] yes=41,no=42,missing=42
					41:leaf=16.5930157
					42:leaf=3.3443954
				22:[f241<0.0338594764] yes=43,no=44,missing=44
					43:leaf=-1.13065529
					44:leaf=0.398873746
	2:[f40<0.435344815] yes=5,no=6,missing=6
		5:[f315<0.015729405] yes=11,no=12,missing=12
			11:[f38<23.7999992] yes=23,no=24,missing=24
				23:[f48<0.081349805] yes=45,no=46,missing=46
					45:leaf=4.55419731
					46:leaf=-2.23978877
				24:[f57<0.00402283249] yes=47,no=48,missing=48
					47:leaf=-6.95142651
					48:leaf=3.18167996
			12:[f105<-0.00170116371] yes=25,no=26,missing=26
				25:[f48<0.063947022] yes=49,no=50,missing=50
					49:leaf=0.546869218
					50:leaf=-3.34610391
				26:[f87<0.0150338262] yes=51,no=52,missing=52
					51:leaf=3.78042316
					52:leaf=-0.831324756
		6:[f444<-0.00948750228] yes=13,no=14,missing=14
			13:[f52<0.08092466] yes=27,no=28,missing=28
				27:[f38<32.9500008] yes=53,no=54,missing=54
					53:leaf=4.39238405
					54:leaf=-1.76153445
				28:leaf=13.4446163
			14:[f286<-0.00557421055] yes=29,no=30,missing=30
				29:[f87<0.034095753] yes=55,no=56,missing=56
					55:leaf=0.828594208
					56:leaf=7.82478428
				30:[f114<31.6499996] yes=57,no=58,missing=58
					57:leaf=0.628822267
					58:leaf=-1.01677394
booster[40]:
0:[f431<0.0334271751] yes=1,no=2,missing=2
	1:[f42<0.28337875] yes=3,no=4,missing=4
		3:[f255<0.00333697954] yes=7,no=8,missing=8
			7:[f235<0.0161164291] yes=15,no=16,missing=16
				15:[f372<0.00282977172] yes=31,no=32,missing=32
					31:leaf=-3.26052046
					32:leaf=0.0558228567
				16:[f195<0.0584854297] yes=33,no=34,missing=34
					33:leaf=-2.25218701
					34:leaf=-0.513219297
			8:[f273<0.122678958] yes=17,no=18,missing=18
				17:[f350<0.206561804] yes=35,no=36,missing=36
					35:leaf=-0.239003554
					36:leaf=7.38059807
				18:[f43<0.0999930948] yes=37,no=38,missing=38
					37:leaf=12.1795406
					38:leaf=4.89721489
		4:[f46<0.0601488985] yes=9,no=10,missing=10
			9:[f229<0.421331793] yes=19,no=20,missing=20
				19:[f396<0.148965791] yes=39,no=40,missing=40
					39:leaf=-3.82799029
					40:leaf=5.34844446
				20:[f395<0.565496027] yes=41,no=42,missing=42
					41:leaf=-0.675157487
					42:leaf=9.21989059
			10:[f347<0.208109379] yes=21,no=22,missing=22
				21:[f67<-0.00123641232] yes=43,no=44,missing=44
					43:leaf=0.681304455
					44:leaf=-0.0715251863
				22:[f69<0.00513848616] yes=45,no=46,missing=46
					45:leaf=-1.42877316
					46:leaf=4.90131664
	2:[f104<-0.0161460843] yes=5,no=6,missing=6
		5:[f240<0.00930862967] yes=11,no=12,missing=12
			11:[f449<-0.00145885872] yes=23,no=24,missing=24
				23:[f109<0.0168358646] yes=47,no=48,missing=48
					47:leaf=0.947587013
					48:leaf=6.18784618
				24:[f299<0.00829327106] yes=49,no=50,missing=50
					49:leaf=-0.809335887
					50:leaf=5.9319849
			12:[f234<0.804469287] yes=25,no=26,missing=26
				25:[f355<0.11491143] yes=51,no=52,missing=52
					51:leaf=-0.58235389
					52:leaf=13.813736
				26:[f244<0.281463057] yes=53,no=54,missing=54
					53:leaf=-2.6723094
					54:leaf=7.83926582
		6:[f248<-0.00780620053] yes=13,no=14,missing=14
			13:[f394<0.126839742] yes=27,no=28,missing=28
				27:[f384<0.413043469] yes=55,no=56,missing=56
					55:leaf=0.134955257
					56:leaf=2.48219132
				28:[f208<0.00714727025] yes=57,no=58,missing=58
					57:leaf=1.79430437
					58:leaf=9.56556892
			14:[f173<8.48279457e-19] yes=29,no=30,missing=30
				29:[f230<0.572127163] yes=59,no=60,missing=60
					59:leaf=-0.0682530403
					60:leaf=0.510599852
				30:[f256<0.00539180124] yes=61,no=62,missing=62
					61:leaf=0.113855049
					62:leaf=-0.369054526
booster[41]:
0:[f408<0.00196923059] yes=1,no=2,missing=2
	1:[f422<0.435828865] yes=3,no=4,missing=4
		3:[f119<0.0678060129] yes=7,no=8,missing=8
			7:[f266<16.4500008] yes=15,no=16,missing=16
				15:[f412<0.00720565813] yes=31,no=32,missing=32
					31:leaf=3.9648366
					32:leaf=-9.05951118
				16:[f317<0.0245126933] yes=33,no=34,missing=34
					33:leaf=0.854629695
					34:leaf=-0.21134977
			8:[f436<-0.00250855484] yes=17,no=18,missing=18
				17:[f343<0.313722998] yes=35,no=36,missing=36
					35:leaf=0.497939289
					36:leaf=-0.0113689452
				18:[f374<-0.00414076587] yes=37,no=38,missing=38
					37:leaf=-0.328083903
					38:leaf=-0.00565772364
		4:[f437<0.00965502951] yes=9,no=10,missing=10
			9:[f215<-0.00485077593] yes=19,no=20,missing=20
				19:[f48<0.0553660579] yes=39,no=40,missing=40
					39:leaf=7.32750225
					40:leaf=1.83428276
				20:[f431<0.0264924392] yes=41,no=42,missing=42
					41:leaf=-2.3879087
					42:leaf=0.399092942
			10:[f61<0.000437926356] yes=21,no=22,missing=22
				21:[f69<-0.00421076547] yes=43,no=44,missing=44
					43:leaf=9.09959412
					44:leaf=0.999530852
				22:[f41<0.143974841] yes=45,no=46,missing=46
					45:leaf=10.1782455
					46:leaf=18.232357
	2:[f228<17.416666] yes=5,no=6,missing=6
		5:[f369<0.00137853506] yes=11,no=12,missing=12
			11:[f65<0.00787458662] yes=23,no=24,missing=24
				23:[f68<0.00135165197] yes=47,no=48,missing=48
					47:leaf=-1.9056797
					48:leaf=-5.72664309
				24:leaf=7.32589197
			12:[f50<0.0109074125] yes=25,no=26,missing=26
				25:[f40<0.47023809] yes=49,no=50,missing=50
					49:leaf=-4.64514637
					50:leaf=8.31360149
				26:[f380<38.5333328] yes=51,no=52,missing=52
					51:leaf=6.47038269
					52:leaf=0.379065424
		6:[f54<-0.0249575004] yes=13,no=14,missing=14
			13:[f307<0.132641181] yes=27,no=28,missing=28
				27:[f384<0.404494375] yes=53,no=54,missing=54
					53:leaf=-0.41782099
					54:leaf=0.92505455
				28:[f259<0.00417709956] yes=55,no=56,missing=56
					55:leaf=0.106908225
					56:leaf=1.77474189
			14:[f69<-0.00319617032] yes=29,no=30,missing=30
				29:[f238<0.035505008] yes=57,no=58,missing=58
					57:leaf=2.67772126
					58:leaf=-0.683590233
				30:[f274<0.167097777] yes=59,no=60,missing=60
					59:leaf=0.177085102
					60:leaf=0.833887398
booster[42]:
0:[f130<0.0425706357] yes=1,no=2,missing=2
	1:[f370<0.00354194269] yes=3,no=4,missing=4
		3:[f449<-1.71641768e-05] yes=7,no=8,missing=8
			7:[f304<21.4333324] yes=15,no=16,missing=16
				15:[f51<0.026449725] yes=31,no=32,missing=32
					31:leaf=3.74056077
					32:leaf=-0.519445181
				16:[f441<0.000447423401] yes=33,no=34,missing=34
					33:leaf=0.371556848
					34:leaf=0.0601805635
			8:[f65<-1.19040965e-06] yes=17,no=18,missing=18
				17:[f309<0.246709198] yes=35,no=36,missing=36
					35:leaf=0.164470628
					36:leaf=-1.48814106
				18:[f56<0.000694402843] yes=37,no=38,missing=38
					37:leaf=-0.358258128
					38:leaf=0.100796103
		4:[f235<0.0561544374] yes=9,no=10,missing=10
			9:[f337<0.00243681623] yes=19,no=20,missing=20
				19:[f71<0.00710924668] yes=39,no=40,missing=40
					39:leaf=-0.340552658
					40:leaf=0.984395742
				20:[f51<0.0966819152] yes=41,no=42,missing=42
					41:leaf=0.777060628
					42:leaf=-2.10203838
			10:[f326<0.00342064328] yes=21,no=22,missing=22
				21:[f447<0.00325430371] yes=43,no=44,missing=44
					43:leaf=-0.654597521
					44:leaf=1.00513995
				22:[f442<-0.00134571712] yes=45,no=46,missing=46
					45:leaf=0.887869537
					46:leaf=-3.0455153
	2:[f390<0.0384777561] yes=5,no=6,missing=6
		5:[f49<0.0531940237] yes=11,no=12,missing=12
			11:[f56<0.00217112782] yes=23,no=24,missing=24
				23:[f38<18.1166668] yes=47,no=48,missing=48
					47:leaf=4.90234756
					48:leaf=0.321325481
				24:[f325<0.00253069215] yes=49,no=50,missing=50
					49:leaf=-0.397200972
					50:leaf=-2.8720746
			12:[f394<0.0700085238] yes=25,no=26,missing=26
				25:[f333<0.00177545019] yes=51,no=52,missing=52
					51:leaf=9.62220383
					52:leaf=1.73852396
				26:[f278<0.0301996153] yes=53,no=54,missing=54
					53:leaf=2.0423255
					54:leaf=-2.41918254
		6:[f342<27.0499992] yes=13,no=14,missing=14
			13:[f95<-0.00767404493] yes=27,no=28,missing=28
				27:[f425<0.0263782889] yes=55,no=56,missing=56
					55:leaf=0.273443013
					56:leaf=3.53177238
				28:[f345<0.200668901] yes=57,no=58,missing=58
					57:leaf=0.0977132767
					58:leaf=-0.786713243
			14:[f352<0.0331771672] yes=29,no=30,missing=30
				29:[f434<0.122780234] yes=59,no=60,missing=60
					59:leaf=-1.32261622
					60:leaf=0.760252297
				30:[f269<0.251887947] yes=61,no=62,missing=62
					61:leaf=-0.18268314
					62:leaf=0.876419663
booster[43]:
0:[f398<0.00871407147] yes=1,no=2,missing=2
	1:[f410<0.0224144589] yes=3,no=4,missing=4
		3:[f374<-0.00208870159] yes=7,no=8,missing=8
			7:[f428<0.0820412636] yes=15,no=16,missing=16
				15:[f50<0.0873635858] yes=31,no=32,missing=32
					31:leaf=0.226365328
					32:leaf=2.52076054
				16:[f223<0.0020970176] yes=33,no=34,missing=34
					33:leaf=-0.197860211
					34:leaf=0.284480304
			8:[f310<0.766265035] yes=17,no=18,missing=18
				17:[f64<0.00890635047] yes=35,no=36,missing=36
					35:leaf=0.0807531029
					36:leaf=-1.13150322
				18:[f59<-0.00378098828] yes=37,no=38,missing=38
					37:leaf=0.166980401
					38:leaf=-0.172065586
		4:[f326<-0.0010529405] yes=9,no=10,missing=10
			9:[f41<0.0529649705] yes=19,no=20,missing=20
				19:[f134<-0.00713507179] yes=39,no=40,missing=40
					39:leaf=7.77609634
					40:leaf=-2.33415651
				20:[f273<0.0490671471] yes=41,no=42,missing=42
					41:leaf=5.11211967
					42:leaf=0.733971596
			10:[f254<0.00288035581] yes=21,no=22,missing=22
				21:[f431<0.0457177684] yes=43,no=44,missing=44
					43:leaf=1.66306496
					44:leaf=-2.21713376
				22:[f38<35] yes=45,no=46,missing=46
					45:leaf=10.8269939
					46:leaf=2.68258142
	2:[f380<41.3666649] yes=5,no=6,missing=6
		5:[f237<0.119299166] yes=11,no=12,missing=12
			11:[f49<0.0428503007] yes=23,no=24,missing=24
				23:[f43<0.239978537] yes=47,no=48,missing=48
					47:leaf=-0.773614109
					48:leaf=6.27051878
				24:[f439<0.00187551242] yes=49,no=50,missing=50
					49:leaf=-4.30096531
					50:leaf=-0.553423822
			12:[f204<0.058291696] yes=25,no=26,missing=26
				25:[f201<0.0506397896] yes=51,no=52,missing=52
					51:leaf=1.03051519
					52:leaf=8.04041672
				26:[f55<6] yes=53,no=54,missing=54
					53:leaf=-0.729646385
					54:leaf=0.551591218
		6:[f123<0.186225489] yes=13,no=14,missing=14
			13:[f53<0.422044814] yes=27,no=28,missing=28
				27:[f273<0.0511361845] yes=55,no=56,missing=56
					55:leaf=3.38499308
					56:leaf=-2.16299725
				28:[f17<9] yes=57,no=58,missing=58
					57:leaf=8.27401066
					58:leaf=-4.13827705
			14:[f198<0.0720415264] yes=29,no=30,missing=30
				29:[f54<-0.00132485421] yes=59,no=60,missing=60
					59:leaf=8.35564995
					60:leaf=2.61232877
				30:[f99<-0.00153082609] yes=61,no=62,missing=62
					61:leaf=2.96265364
					62:leaf=-2.39087152
booster[44]:
0:[f59<-0.00841707643] yes=1,no=2,missing=2
	1:[f208<-0.010101567] yes=3,no=4,missing=4
		3:[f365<0.0094766384] yes=7,no=8,missing=8
			7:[f254<-0.00477054762] yes=15,no=16,missing=16
				15:[f76<24.2000008] yes=31,no=32,missing=32
					31:leaf=2.81521463
					32:leaf=12.0424833
				16:[f451<-0.00163839338] yes=33,no=34,missing=34
					33:leaf=-1.28672743
					34:leaf=2.29085803
